{"learner":{"attributes":{"best_iteration":"999","best_ntree_limit":"1000"},"feature_names":[],"feature_types":[],"gradient_booster":{"gbtree":{"model":{"gbtree_model_param":{"num_parallel_tree":"1","num_trees":"3000","size_leaf_vector":"0"},"tree_info":[0,1,2,0,1,2,0,1,2,0,1,2,0,1,2,0,1,2,0,1,2,0,1,2,0,1,2,0,1,2,0,1,2,0,1,2,0,1,2,0,1,2,0,1,2,0,1,2,0,1,2,0,1,2,0,1,2,0,1,2,0,1,2,0,1,2,0,1,2,0,1,2,0,1,2,0,1,2,0,1,2,0,1,2,0,1,2,0,1,2,0,1,2,0,1,2,0,1,2,0,1,2,0,1,2,0,1,2,0,1,2,0,1,2,0,1,2,0,1,2,0,1,2,0,1,2,0,1,2,0,1,2,0,1,2,0,1,2,0,1,2,0,1,2,0,1,2,0,1,2,0,1,2,0,1,2,0,1,2,0,1,2,0,1,2,0,1,2,0,1,2,0,1,2,0,1,2,0,1,2,0,1,2,0,1,2,0,1,2,0,1,2,0,1,2,0,1,2,0,1,2,0,1,2,0,1,2,0,1,2,0,1,2,0,1,2,0,1,2,0,1,2,0,1,2,0,1,2,0,1,2,0,1,2,0,1,2,0,1,2,0,1,2,0,1,2,0,1,2,0,1,2,0,1,2,0,1,2,0,1,2,0,1,2,0,1,2,0,1,2,0,1,2,0,1,2,0,1,2,0,1,2,0,1,2,0,1,2,0,1,2,0,1,2,0,1,2,0,1,2,0,1,2,0,1,2,0,1,2,0,1,2,0,1,2,0,1,2,0,1,2,0,1,2,0,1,2,0,1,2,0,1,2,0,1,2,0,1,2,0,1,2,0,1,2,0,1,2,0,1,2,0,1,2,0,1,2,0,1,2,0,1,2,0,1,2,0,1,2,0,1,2,0,1,2,0,1,2,0,1,2,0,1,2,0,1,2,0,1,2,0,1,2,0,1,2,0,1,2,0,1,2,0,1,2,0,1,2,0,1,2,0,1,2,0,1,2,0,1,2,0,1,2,0,1,2,0,1,2,0,1,2,0,1,2,0,1,2,0,1,2,0,1,2,0,1,2,0,1,2,0,1,2,0,1,2,0,1,2,0,1,2,0,1,2,0,1,2,0,1,2,0,1,2,0,1,2,0,1,2,0,1,2,0,1,2,0,1,2,0,1,2,0,1,2,0,1,2,0,1,2,0,1,2,0,1,2,0,1,2,0,1,2,0,1,2,0,1,2,0,1,2,0,1,2,0,1,2,0,1,2,0,1,2,0,1,2,0,1,2,0,1,2,0,1,2,0,1,2,0,1,2,0,1,2,0,1,2,0,1,2,0,1,2,0,1,2,0,1,2,0,1,2,0,1,2,0,1,2,0,1,2,0,1,2,0,1,2,0,1,2,0,1,2,0,1,2,0,1,2,0,1,2,0,1,2,0,1,2,0,1,2,0,1,2,0,1,2,0,1,2,0,1,2,0,1,2,0,1,2,0,1,2,0,1,2,0,1,2,0,1,2,0,1,2,0,1,2,0,1,2,0,1,2,0,1,2,0,1,2,0,1,2,0,1,2,0,1,2,0,1,2,0,1,2,0,1,2,0,1,2,0,1,2,0,1,2,0,1,2,0,1,2,0,1,2,0,1,2,0,1,2,0,1,2,0,1,2,0,1,2,0,1,2,0,1,2,0,1,2,0,1,2,0,1,2,0,1,2,0,1,2,0,1,2,0,1,2,0,1,2,0,1,2,0,1,2,0,1,2,0,1,2,0,1,2,0,1,2,0,1,2,0,1,2,0,1,2,0,1,2,0,1,2,0,1,2,0,1,2,0,1,2,0,1,2,0,1,2,0,1,2,0,1,2,0,1,2,0,1,2,0,1,2,0,1,2,0,1,2,0,1,2,0,1,2,0,1,2,0,1,2,0,1,2,0,1,2,0,1,2,0,1,2,0,1,2,0,1,2,0,1,2,0,1,2,0,1,2,0,1,2,0,1,2,0,1,2,0,1,2,0,1,2,0,1,2,0,1,2,0,1,2,0,1,2,0,1,2,0,1,2,0,1,2,0,1,2,0,1,2,0,1,2,0,1,2,0,1,2,0,1,2,0,1,2,0,1,2,0,1,2,0,1,2,0,1,2,0,1,2,0,1,2,0,1,2,0,1,2,0,1,2,0,1,2,0,1,2,0,1,2,0,1,2,0,1,2,0,1,2,0,1,2,0,1,2,0,1,2,0,1,2,0,1,2,0,1,2,0,1,2,0,1,2,0,1,2,0,1,2,0,1,2,0,1,2,0,1,2,0,1,2,0,1,2,0,1,2,0,1,2,0,1,2,0,1,2,0,1,2,0,1,2,0,1,2,0,1,2,0,1,2,0,1,2,0,1,2,0,1,2,0,1,2,0,1,2,0,1,2,0,1,2,0,1,2,0,1,2,0,1,2,0,1,2,0,1,2,0,1,2,0,1,2,0,1,2,0,1,2,0,1,2,0,1,2,0,1,2,0,1,2,0,1,2,0,1,2,0,1,2,0,1,2,0,1,2,0,1,2,0,1,2,0,1,2,0,1,2,0,1,2,0,1,2,0,1,2,0,1,2,0,1,2,0,1,2,0,1,2,0,1,2,0,1,2,0,1,2,0,1,2,0,1,2,0,1,2,0,1,2,0,1,2,0,1,2,0,1,2,0,1,2,0,1,2,0,1,2,0,1,2,0,1,2,0,1,2,0,1,2,0,1,2,0,1,2,0,1,2,0,1,2,0,1,2,0,1,2,0,1,2,0,1,2,0,1,2,0,1,2,0,1,2,0,1,2,0,1,2,0,1,2,0,1,2,0,1,2,0,1,2,0,1,2,0,1,2,0,1,2,0,1,2,0,1,2,0,1,2,0,1,2,0,1,2,0,1,2,0,1,2,0,1,2,0,1,2,0,1,2,0,1,2,0,1,2,0,1,2,0,1,2,0,1,2,0,1,2,0,1,2,0,1,2,0,1,2,0,1,2,0,1,2,0,1,2,0,1,2,0,1,2,0,1,2,0,1,2,0,1,2,0,1,2,0,1,2,0,1,2,0,1,2,0,1,2,0,1,2,0,1,2,0,1,2,0,1,2,0,1,2,0,1,2,0,1,2,0,1,2,0,1,2,0,1,2,0,1,2,0,1,2,0,1,2,0,1,2,0,1,2,0,1,2,0,1,2,0,1,2,0,1,2,0,1,2,0,1,2,0,1,2,0,1,2,0,1,2,0,1,2,0,1,2,0,1,2,0,1,2,0,1,2,0,1,2,0,1,2,0,1,2,0,1,2,0,1,2,0,1,2,0,1,2,0,1,2,0,1,2,0,1,2,0,1,2,0,1,2,0,1,2,0,1,2,0,1,2,0,1,2,0,1,2,0,1,2,0,1,2,0,1,2,0,1,2,0,1,2,0,1,2,0,1,2,0,1,2,0,1,2,0,1,2,0,1,2,0,1,2,0,1,2,0,1,2,0,1,2,0,1,2,0,1,2,0,1,2,0,1,2,0,1,2,0,1,2,0,1,2,0,1,2,0,1,2,0,1,2,0,1,2,0,1,2,0,1,2,0,1,2,0,1,2,0,1,2,0,1,2,0,1,2,0,1,2,0,1,2,0,1,2,0,1,2,0,1,2,0,1,2,0,1,2,0,1,2,0,1,2,0,1,2,0,1,2,0,1,2,0,1,2,0,1,2,0,1,2,0,1,2,0,1,2,0,1,2,0,1,2,0,1,2,0,1,2,0,1,2,0,1,2,0,1,2,0,1,2,0,1,2,0,1,2,0,1,2,0,1,2,0,1,2,0,1,2,0,1,2,0,1,2,0,1,2,0,1,2,0,1,2,0,1,2,0,1,2,0,1,2,0,1,2,0,1,2,0,1,2,0,1,2,0,1,2,0,1,2,0,1,2,0,1,2,0,1,2,0,1,2,0,1,2,0,1,2,0,1,2,0,1,2,0,1,2,0,1,2,0,1,2,0,1,2,0,1,2,0,1,2,0,1,2,0,1,2,0,1,2,0,1,2,0,1,2,0,1,2,0,1,2,0,1,2,0,1,2,0,1,2,0,1,2,0,1,2,0,1,2,0,1,2,0,1,2,0,1,2,0,1,2,0,1,2,0,1,2,0,1,2,0,1,2,0,1,2,0,1,2,0,1,2,0,1,2,0,1,2,0,1,2,0,1,2,0,1,2,0,1,2,0,1,2,0,1,2,0,1,2,0,1,2,0,1,2,0,1,2,0,1,2,0,1,2,0,1,2,0,1,2,0,1,2,0,1,2,0,1,2,0,1,2,0,1,2,0,1,2,0,1,2,0,1,2,0,1,2,0,1,2,0,1,2,0,1,2,0,1,2,0,1,2,0,1,2,0,1,2,0,1,2,0,1,2,0,1,2,0,1,2,0,1,2,0,1,2,0,1,2,0,1,2,0,1,2,0,1,2,0,1,2,0,1,2,0,1,2,0,1,2,0,1,2,0,1,2,0,1,2,0,1,2,0,1,2,0,1,2,0,1,2,0,1,2,0,1,2,0,1,2,0,1,2,0,1,2,0,1,2,0,1,2,0,1,2,0,1,2,0,1,2,0,1,2,0,1,2,0,1,2,0,1,2,0,1,2,0,1,2,0,1,2,0,1,2,0,1,2,0,1,2,0,1,2,0,1,2,0,1,2,0,1,2,0,1,2,0,1,2,0,1,2,0,1,2,0,1,2,0,1,2,0,1,2,0,1,2,0,1,2,0,1,2,0,1,2,0,1,2,0,1,2,0,1,2,0,1,2,0,1,2,0,1,2,0,1,2,0,1,2,0,1,2,0,1,2,0,1,2,0,1,2,0,1,2,0,1,2,0,1,2,0,1,2,0,1,2,0,1,2,0,1,2,0,1,2,0,1,2,0,1,2,0,1,2,0,1,2,0,1,2,0,1,2,0,1,2,0,1,2,0,1,2,0,1,2,0,1,2,0,1,2,0,1,2,0,1,2,0,1,2,0,1,2,0,1,2,0,1,2,0,1,2,0,1,2,0,1,2,0,1,2,0,1,2,0,1,2,0,1,2,0,1,2,0,1,2,0,1,2,0,1,2,0,1,2,0,1,2,0,1,2,0,1,2,0,1,2,0,1,2,0,1,2,0,1,2,0,1,2,0,1,2,0,1,2,0,1,2,0,1,2,0,1,2,0,1,2,0,1,2,0,1,2,0,1,2,0,1,2,0,1,2,0,1,2,0,1,2,0,1,2,0,1,2,0,1,2,0,1,2,0,1,2,0,1,2,0,1,2,0,1,2,0,1,2,0,1,2,0,1,2,0,1,2,0,1,2,0,1,2,0,1,2,0,1,2,0,1,2,0,1,2,0,1,2,0,1,2,0,1,2,0,1,2,0,1,2,0,1,2,0,1,2,0,1,2,0,1,2,0,1,2,0,1,2,0,1,2,0,1,2,0,1,2,0,1,2,0,1,2,0,1,2,0,1,2,0,1,2,0,1,2,0,1,2,0,1,2,0,1,2,0,1,2,0,1,2,0,1,2,0,1,2,0,1,2,0,1,2,0,1,2,0,1,2,0,1,2,0,1,2,0,1,2,0,1,2,0,1,2,0,1,2,0,1,2,0,1,2,0,1,2,0,1,2,0,1,2,0,1,2,0,1,2,0,1,2,0,1,2,0,1,2,0,1,2,0,1,2,0,1,2,0,1,2,0,1,2,0,1,2,0,1,2,0,1,2,0,1,2,0,1,2,0,1,2,0,1,2,0,1,2,0,1,2,0,1,2,0,1,2,0,1,2,0,1,2,0,1,2,0,1,2,0,1,2,0,1,2,0,1,2,0,1,2,0,1,2,0,1,2,0,1,2,0,1,2,0,1,2,0,1,2,0,1,2,0,1,2,0,1,2,0,1,2,0,1,2,0,1,2,0,1,2,0,1,2,0,1,2,0,1,2,0,1,2,0,1,2,0,1,2,0,1,2,0,1,2,0,1,2,0,1,2,0,1,2,0,1,2,0,1,2,0,1,2,0,1,2,0,1,2,0,1,2,0,1,2,0,1,2,0,1,2,0,1,2,0,1,2,0,1,2,0,1,2,0,1,2,0,1,2,0,1,2,0,1,2,0,1,2,0,1,2,0,1,2,0,1,2,0,1,2,0,1,2,0,1,2,0,1,2,0,1,2,0,1,2,0,1,2,0,1,2,0,1,2,0,1,2,0,1,2,0,1,2,0,1,2,0,1,2,0,1,2,0,1,2,0,1,2,0,1,2,0,1,2,0,1,2,0,1,2,0,1,2,0,1,2,0,1,2,0,1,2,0,1,2,0,1,2,0,1,2,0,1,2,0,1,2,0,1,2,0,1,2,0,1,2,0,1,2,0,1,2,0,1,2,0,1,2,0,1,2,0,1,2,0,1,2,0,1,2,0,1,2,0,1,2,0,1,2,0,1,2,0,1,2,0,1,2,0,1,2,0,1,2,0,1,2,0,1,2,0,1,2,0,1,2,0,1,2,0,1,2,0,1,2,0,1,2,0,1,2,0,1,2,0,1,2,0,1,2,0,1,2,0,1,2,0,1,2,0,1,2,0,1,2,0,1,2,0,1,2,0,1,2,0,1,2,0,1,2,0,1,2,0,1,2,0,1,2,0,1,2,0,1,2,0,1,2,0,1,2,0,1,2,0,1,2,0,1,2,0,1,2,0,1,2,0,1,2,0,1,2,0,1,2,0,1,2,0,1,2,0,1,2,0,1,2,0,1,2,0,1,2,0,1,2,0,1,2,0,1,2,0,1,2,0,1,2,0,1,2,0,1,2],"trees":[{"base_weights":[-1.10429496E-1,1.4068966E0,-7.3087823E-1],"categories":[],"categories_nodes":[],"categories_segments":[],"categories_sizes":[],"default_left":[1,0,0],"id":0,"left_children":[1,-1,-1],"loss_changes":[5.2178917E1,0E0,0E0],"parents":[2147483647,0,0],"right_children":[2,-1,-1],"split_conditions":[2.35E0,1.4068966E-1,-7.308783E-2],"split_indices":[2,0,0],"split_type":[0,0,0],"sum_hessian":[5.333333E1,1.5111111E1,3.822222E1],"tree_param":{"num_deleted":"0","num_feature":"4","num_nodes":"3","size_leaf_vector":"0"}},{"base_weights":[3.6809772E-2,4.0540537E-1,-7.0909095E-1,-7.0344836E-1,1.2030457E0,1.3699422E0,-3.2511625E-8,1.416149E0,4.285714E-1,-4.2857146E-1,4.285714E-1],"categories":[],"categories_nodes":[],"categories_segments":[],"categories_sizes":[],"default_left":[1,1,0,0,1,1,1,0,0,0,0],"id":1,"left_children":[1,3,-1,-1,5,7,9,-1,-1,-1,-1],"loss_changes":[1.5225643E1,3.3571533E1,0E0,0E0,4.3949413E0,2.2920227E-1,8.5714287E-1,0E0,0E0,0E0,0E0],"parents":[2147483647,0,0,1,1,4,4,5,5,6,6],"right_children":[2,4,-1,-1,6,8,10,-1,-1,-1,-1],"split_conditions":[1.75E0,2.35E0,-7.09091E-2,-7.0344836E-2,4.95E0,1.55E0,1.55E0,1.416149E-1,4.285714E-2,-4.2857148E-2,4.285714E-2],"split_indices":[3,2,0,0,2,3,3,0,0,0,0],"split_type":[0,0,0,0,0,0,0,0,0,0,0],"sum_hessian":[5.333333E1,3.5999996E1,1.7333332E1,1.5111111E1,2.0888887E1,1.8222221E1,2.6666665E0,1.6888887E1,1.3333333E0,1.3333333E0,1.3333333E0],"tree_param":{"num_deleted":"0","num_feature":"4","num_nodes":"11","size_leaf_vector":"0"}},{"base_weights":[7.361959E-2,-6.9767445E-1,1.2487309E0,-7.266437E-1,-2.5544848E-8,2.926829E-1,1.4181818E0,-1.2000003E-1,5.9999996E-1],"categories":[],"categories_nodes":[],"categories_segments":[],"categories_sizes":[],"default_left":[1,1,1,0,0,1,0,0,0],"id":2,"left_children":[1,3,5,-1,-1,7,-1,-1,-1],"loss_changes":[5.011657E1,6.759453E-1,3.130993E0,0E0,0E0,6.497562E-1,0E0,0E0,0E0],"parents":[2147483647,0,0,1,1,2,2,5,5],"right_children":[2,4,6,-1,-1,8,-1,-1,-1],"split_conditions":[4.75E0,1.55E0,1.75E0,-7.266437E-2,-2.5544848E-9,5.05E0,1.4181818E-1,-1.2000003E-2,6E-2],"split_indices":[2,3,3,0,0,2,0,0,0],"split_type":[0,0,0,0,0,0,0,0,0],"sum_hessian":[5.333333E1,3.2444443E1,2.0888887E1,3.1111109E1,1.3333333E0,3.5555553E0,1.7333332E1,1.7777777E0,1.7777777E0],"tree_param":{"num_deleted":"0","num_feature":"4","num_nodes":"9","size_leaf_vector":"0"}},{"base_weights":[-1.0328269E-1,1.2320614E0,-7.043112E-1],"categories":[],"categories_nodes":[],"categories_segments":[],"categories_sizes":[],"default_left":[1,0,0],"id":3,"left_children":[1,-1,-1],"loss_changes":[4.4023155E1,0E0,0E0],"parents":[2147483647,0,0],"right_children":[2,-1,-1],"split_conditions":[2.35E0,1.2320614E-1,-7.043112E-2],"split_indices":[2,0,0],"split_type":[0,0,0],"sum_hessian":[5.277085E1,1.60536E1,3.671725E1],"tree_param":{"num_deleted":"0","num_feature":"4","num_nodes":"3","size_leaf_vector":"0"}},{"base_weights":[3.3717144E-2,3.7000638E-1,-6.8274176E-1,-6.773288E-1,1.0612458E0,1.2024367E0,-6.2719253E-3,1.2392147E0,4.000361E-1,-4.233377E-1,4.0683812E-1],"categories":[],"categories_nodes":[],"categories_segments":[],"categories_sizes":[],"default_left":[1,1,0,0,1,1,1,0,0,0,0],"id":4,"left_children":[1,3,-1,-1,5,7,9,-1,-1,-1,-1],"loss_changes":[1.3306382E1,2.7882248E1,0E0,0E0,3.4730473E0,1.0368538E-1,8.063734E-1,0E0,0E0,0E0,0E0],"parents":[2147483647,0,0,1,1,4,4,5,5,6,6],"right_children":[2,4,-1,-1,6,8,10,-1,-1,-1,-1],"split_conditions":[1.75E0,2.35E0,-6.827418E-2,-6.7732885E-2,4.95E0,1.55E0,1.55E0,1.2392147E-1,4.000361E-2,-4.233377E-2,4.0683813E-2],"split_indices":[3,2,0,0,2,3,3,0,0,0,0],"split_type":[0,0,0,0,0,0,0,0,0,0,0],"sum_hessian":[5.3179058E1,3.6520664E1,1.6658394E1,1.4528243E1,2.1992424E1,1.9311836E1,2.680588E0,1.7944946E1,1.3668889E0,1.3215876E0,1.3590003E0],"tree_param":{"num_deleted":"0","num_feature":"4","num_nodes":"11","size_leaf_vector":"0"}},{"base_weights":[6.871273E-2,-6.71042E-1,1.1009285E0,-6.9985723E-1,-3.8376315E-3,2.7373785E-1,1.2401747E0,-1.1593592E-1,5.5811656E-1],"categories":[],"categories_nodes":[],"categories_segments":[],"categories_sizes":[],"default_left":[1,1,1,0,0,1,0,0,0],"id":5,"left_children":[1,3,5,-1,-1,7,-1,-1,-1],"loss_changes":[4.2154137E1,6.1669064E-1,2.312231E0,0E0,0E0,5.7448316E-1,0E0,0E0,0E0],"parents":[2147483647,0,0,1,1,2,2,5,5],"right_children":[2,4,6,-1,-1,8,-1,-1,-1],"split_conditions":[4.75E0,1.55E0,1.75E0,-6.9985725E-2,-3.8376317E-4,5.05E0,1.2401747E-1,-1.1593592E-2,5.5811655E-2],"split_indices":[2,3,3,0,0,2,0,0,0],"split_type":[0,0,0,0,0,0,0,0,0],"sum_hessian":[5.323794E1,3.1216217E1,2.2021723E1,2.9876953E1,1.3392644E0,3.6002595E0,1.8421465E1,1.7688236E0,1.8314359E0],"tree_param":{"num_deleted":"0","num_feature":"4","num_nodes":"9","size_leaf_vector":"0"}},{"base_weights":[-9.7406805E-2,1.1013274E0,-6.807395E-1],"categories":[],"categories_nodes":[],"categories_segments":[],"categories_sizes":[],"default_left":[1,0,0],"id":6,"left_children":[1,-1,-1],"loss_changes":[3.7638443E1,0E0,0E0],"parents":[2147483647,0,0],"right_children":[2,-1,-1],"split_conditions":[2.35E0,1.1013275E-1,-6.807395E-2],"split_indices":[2,0,0],"split_type":[0,0,0],"sum_hessian":[5.1753887E1,1.6650183E1,3.5103703E1],"tree_param":{"num_deleted":"0","num_feature":"4","num_nodes":"3","size_leaf_vector":"0"}},{"base_weights":[3.116954E-2,3.4118104E-1,-6.5903497E-1,-6.537564E-1,9.5244074E-1,1.076367E0,-1.1413439E-2,1.1072639E0,3.7407202E-1,-4.177481E-1,3.873489E-1],"categories":[],"categories_nodes":[],"categories_segments":[],"categories_sizes":[],"default_left":[1,1,0,0,1,1,1,0,0,0,0],"id":7,"left_children":[1,3,-1,-1,5,7,9,-1,-1,-1,-1],"loss_changes":[1.1678437E1,2.34876E1,0E0,0E0,2.8426666E0,4.162407E-2,7.595567E-1,0E0,0E0,0E0,0E0],"parents":[2147483647,0,0,1,1,4,4,5,5,6,6],"right_children":[2,4,-1,-1,6,8,10,-1,-1,-1,-1],"split_conditions":[1.75E0,2.35E0,-6.59035E-2,-6.537564E-2,4.95E0,1.55E0,1.55E0,1.10726394E-1,3.74072E-2,-4.177481E-2,3.873489E-2],"split_indices":[3,2,0,0,2,3,3,0,0,0,0],"split_type":[0,0,0,0,0,0,0,0,0,0,0],"sum_hessian":[5.25286E1,3.6596596E1,1.5932005E1,1.3900863E1,2.2695732E1,2.0006668E1,2.6890633E0,1.8611244E1,1.3954239E0,1.3083037E0,1.3807595E0],"tree_param":{"num_deleted":"0","num_feature":"4","num_nodes":"11","size_leaf_vector":"0"}},{"base_weights":[6.4702585E-2,-6.470595E-1,9.8818487E-1,-6.759501E-1,-6.725802E-3,2.568426E-1,1.1075548E0,-1.11580126E-1,5.208794E-1],"categories":[],"categories_nodes":[],"categories_segments":[],"categories_sizes":[],"default_left":[1,1,1,0,0,1,0,0,0],"id":8,"left_children":[1,3,5,-1,-1,7,-1,-1,-1],"loss_changes":[3.58917E1,5.66947E-1,1.7880154E0,0E0,0E0,5.0880647E-1,0E0,0E0,0E0],"parents":[2147483647,0,0,1,1,2,2,5,5],"right_children":[2,4,6,-1,-1,8,-1,-1,-1],"split_conditions":[4.75E0,1.55E0,1.75E0,-6.759501E-2,-6.725802E-4,5.05E0,1.1075548E-1,-1.1158013E-2,5.208794E-2],"split_indices":[2,3,3,0,0,2,0,0,0],"split_type":[0,0,0,0,0,0,0,0,0],"sum_hessian":[5.263198E1,2.9892244E1,2.2739737E1,2.8548569E1,1.3436763E0,3.6330178E0,1.910672E1,1.7577517E0,1.8752661E0],"tree_param":{"num_deleted":"0","num_feature":"4","num_nodes":"9","size_leaf_vector":"0"}},{"base_weights":[-9.886951E-2,1.1118289E0,-6.834219E-1],"categories":[],"categories_nodes":[],"categories_segments":[],"categories_sizes":[],"default_left":[1,0,0],"id":9,"left_children":[1,-1,-1],"loss_changes":[3.8205715E1,0E0,0E0],"parents":[2147483647,0,0],"right_children":[2,-1,-1],"split_conditions":[2.35E0,1.1118289E-1,-6.8342194E-2],"split_indices":[2,0,0],"split_type":[0,0,0],"sum_hessian":[5.1910812E1,1.6608995E1,3.530182E1],"tree_param":{"num_deleted":"0","num_feature":"4","num_nodes":"3","size_leaf_vector":"0"}},{"base_weights":[2.998498E-2,3.438315E-1,-6.631669E-1,-6.554391E-1,9.6093416E-1,1.0863434E0,-1.1778903E-2,1.1178371E0,3.752347E-1,-4.1819647E-1,3.874129E-1],"categories":[],"categories_nodes":[],"categories_segments":[],"categories_sizes":[],"default_left":[1,1,0,0,1,1,1,0,0,0,0],"id":10,"left_children":[1,3,-1,-1,5,7,9,-1,-1,-1,-1],"loss_changes":[1.1902728E1,2.3815239E1,0E0,0E0,2.8977623E0,4.9951553E-2,7.607E-1,0E0,0E0,0E0,0E0],"parents":[2147483647,0,0,1,1,4,4,5,5,6,6],"right_children":[2,4,-1,-1,6,8,10,-1,-1,-1,-1],"split_conditions":[1.75E0,2.35E0,-6.631669E-2,-6.554391E-2,4.95E0,1.55E0,1.55E0,1.11783706E-1,3.752347E-2,-4.1819647E-2,3.874129E-2],"split_indices":[3,2,0,0,2,3,3,0,0,0,0],"split_type":[0,0,0,0,0,0,0,0,0,0,0],"sum_hessian":[5.2666138E1,3.659882E1,1.606732E1,1.3949062E1,2.2649757E1,1.9959602E1,2.6901546E0,1.8565409E1,1.3941933E0,1.3094225E0,1.3807322E0],"tree_param":{"num_deleted":"0","num_feature":"4","num_nodes":"11","size_leaf_vector":"0"}},{"base_weights":[6.747418E-2,-6.4952815E-1,1.0059152E0,-6.7839164E-1,-6.6467947E-3,2.5793022E-1,1.128769E0,-1.1270929E-1,5.244193E-1],"categories":[],"categories_nodes":[],"categories_segments":[],"categories_sizes":[],"default_left":[1,1,1,0,0,1,0,0,0],"id":11,"left_children":[1,3,5,-1,-1,7,-1,-1,-1],"loss_changes":[3.6773476E1,5.714359E-1,1.8814468E0,0E0,0E0,5.165744E-1,0E0,0E0,0E0],"parents":[2147483647,0,0,1,1,2,2,5,5],"right_children":[2,4,6,-1,-1,8,-1,-1,-1],"split_conditions":[4.75E0,1.55E0,1.75E0,-6.783917E-2,-6.646795E-4,5.05E0,1.1287691E-1,-1.1270929E-2,5.2441932E-2],"split_indices":[2,3,3,0,0,2,0,0,0],"split_type":[0,0,0,0,0,0,0,0,0],"sum_hessian":[5.268111E1,3.0038496E1,2.2642616E1,2.869494E1,1.3435563E0,3.6315775E0,1.9011038E1,1.7603284E0,1.871249E0],"tree_param":{"num_deleted":"0","num_feature":"4","num_nodes":"9","size_leaf_vector":"0"}},{"base_weights":[-9.110617E-2,9.7148246E-1,-6.532477E-1],"categories":[],"categories_nodes":[],"categories_segments":[],"categories_sizes":[],"default_left":[1,0,0],"id":12,"left_children":[1,-1,-1],"loss_changes":[3.0993242E1,0E0,0E0],"parents":[2147483647,0,0],"right_children":[2,-1,-1],"split_conditions":[2.35E0,9.714825E-2,-6.5324776E-2],"split_indices":[2,0,0],"split_type":[0,0,0],"sum_hessian":[4.9824276E1,1.6986794E1,3.2837482E1],"tree_param":{"num_deleted":"0","num_feature":"4","num_nodes":"3","size_leaf_vector":"0"}},{"base_weights":[2.8442882E-2,3.1021422E-1,-6.308999E-1,-6.257169E-1,8.4156495E-1,9.503189E-1,-1.6805107E-2,9.765106E-1,3.429588E-1,-4.0997997E-1,3.6442438E-1],"categories":[],"categories_nodes":[],"categories_segments":[],"categories_sizes":[],"default_left":[1,1,0,0,1,1,1,0,0,0,0],"id":13,"left_children":[1,3,-1,-1,5,7,9,-1,-1,-1,-1],"loss_changes":[9.860998E0,1.8985912E1,0E0,0E0,2.2660255E0,5.683899E-3,7.029562E-1,0E0,0E0,0E0,0E0],"parents":[2147483647,0,0,1,1,4,4,5,5,6,6],"right_children":[2,4,-1,-1,6,8,10,-1,-1,-1,-1],"split_conditions":[1.75E0,2.35E0,-6.308999E-2,-6.25717E-2,4.95E0,1.55E0,1.55E0,9.765106E-2,3.4295883E-2,-4.0997997E-2,3.644244E-2],"split_indices":[3,2,0,0,2,3,3,0,0,0,0],"split_type":[0,0,0,0,0,0,0,0,0,0,0],"sum_hessian":[5.1024334E1,3.6118526E1,1.4905808E1,1.3015386E1,2.310314E1,2.0410097E1,2.693042E0,1.8983656E1,1.4264423E0,1.2886246E0,1.4044174E0],"tree_param":{"num_deleted":"0","num_feature":"4","num_nodes":"11","size_leaf_vector":"0"}},{"base_weights":[6.0392585E-2,-6.1856735E-1,8.739639E-1,-6.478958E-1,-9.3328105E-3,2.3715353E-1,9.76141E-1,-1.05353095E-1,4.7732568E-1],"categories":[],"categories_nodes":[],"categories_segments":[],"categories_sizes":[],"default_left":[1,1,1,0,0,1,0,0,0],"id":14,"left_children":[1,3,5,-1,-1,7,-1,-1,-1],"loss_changes":[2.9358438E1,5.125389E-1,1.3396797E0,0E0,0E0,4.3359035E-1,0E0,0E0,0E0],"parents":[2147483647,0,0,1,1,2,2,5,5],"right_children":[2,4,6,-1,-1,8,-1,-1,-1],"split_conditions":[4.75E0,1.55E0,1.75E0,-6.4789586E-2,-9.332811E-4,5.05E0,9.76141E-2,-1.053531E-2,4.773257E-2],"split_indices":[2,3,3,0,0,2,0,0,0],"split_type":[0,0,0,0,0,0,0,0,0],"sum_hessian":[5.117009E1,2.8023212E1,2.3146875E1,2.6675592E1,1.34762E0,3.6596165E0,1.9487259E1,1.7398214E0,1.9197953E0],"tree_param":{"num_deleted":"0","num_feature":"4","num_nodes":"9","size_leaf_vector":"0"}},{"base_weights":[-8.996627E-2,9.12622E-1,-6.404237E-1],"categories":[],"categories_nodes":[],"categories_segments":[],"categories_sizes":[],"default_left":[1,0,0],"id":15,"left_children":[1,-1,-1],"loss_changes":[2.7937504E1,0E0,0E0],"parents":[2147483647,0,0],"right_children":[2,-1,-1],"split_conditions":[2.35E0,9.12622E-2,-6.4042374E-2],"split_indices":[2,0,0],"split_type":[0,0,0],"sum_hessian":[4.8563187E1,1.6979414E1,3.1583775E1],"tree_param":{"num_deleted":"0","num_feature":"4","num_nodes":"3","size_leaf_vector":"0"}},{"base_weights":[2.3024593E-2,3.03896E-1,-6.2667894E-1,-6.032766E-1,7.8722966E-1,8.915722E-1,-2.7397458E-2,9.1668E-1,3.2184866E-1,-4.0777627E-1,3.4181535E-1],"categories":[],"categories_nodes":[],"categories_segments":[],"categories_sizes":[],"default_left":[1,1,0,0,1,1,1,0,0,0,0],"id":16,"left_children":[1,3,-1,-1,5,7,9,-1,-1,-1,-1],"loss_changes":[9.506611E0,1.6398623E1,0E0,0E0,2.0752354E0,1.1333466E-2,6.6036946E-1,0E0,0E0,0E0,0E0],"parents":[2147483647,0,0,1,1,4,4,5,5,6,6],"right_children":[2,4,-1,-1,6,8,10,-1,-1,-1,-1],"split_conditions":[1.75E0,2.35E0,-6.26679E-2,-6.032766E-2,4.95E0,1.55E0,1.55E0,9.1668E-2,3.2184865E-2,-4.0777627E-2,3.4181535E-2],"split_indices":[3,2,0,0,2,3,3,0,0,0,0],"split_type":[0,0,0,0,0,0,0,0,0,0,0],"sum_hessian":[5.0052197E1,3.5316765E1,1.4735432E1,1.2189688E1,2.3127077E1,2.041743E1,2.7096455E0,1.8972326E1,1.4451051E0,1.2831953E0,1.4264504E0],"tree_param":{"num_deleted":"0","num_feature":"4","num_nodes":"11","size_leaf_vector":"0"}},{"base_weights":[6.35527E-2,-6.115683E-1,8.5772526E-1,-6.410332E-1,-1.0693263E-2,2.3394446E-1,9.576022E-1,-1.0409585E-1,4.696593E-1],"categories":[],"categories_nodes":[],"categories_segments":[],"categories_sizes":[],"default_left":[1,1,1,0,0,1,0,0,0],"id":17,"left_children":[1,3,5,-1,-1,7,-1,-1,-1],"loss_changes":[2.8226313E1,4.979124E-1,1.2809467E0,0E0,0E0,4.1998604E-1,0E0,0E0,0E0],"parents":[2147483647,0,0,1,1,2,2,5,5],"right_children":[2,4,6,-1,-1,8,-1,-1,-1],"split_conditions":[4.75E0,1.55E0,1.75E0,-6.410332E-2,-1.0693263E-3,5.05E0,9.576022E-2,-1.0409585E-2,4.696593E-2],"split_indices":[2,3,3,0,0,2,0,0,0],"split_type":[0,0,0,0,0,0,0,0,0],"sum_hessian":[5.0666706E1,2.7510303E1,2.31564E1,2.616064E1,1.3496628E0,3.6572692E0,1.9499132E1,1.731909E0,1.9253603E0],"tree_param":{"num_deleted":"0","num_feature":"4","num_nodes":"9","size_leaf_vector":"0"}},{"base_weights":[-8.574011E-2,8.5462755E-1,-6.2462735E-1],"categories":[],"categories_nodes":[],"categories_segments":[],"categories_sizes":[],"default_left":[1,0,0],"id":18,"left_children":[1,-1,-1],"loss_changes":[2.4727394E1,0E0,0E0],"parents":[2147483647,0,0],"right_children":[2,-1,-1],"split_conditions":[2.35E0,8.546276E-2,-6.2462736E-2],"split_indices":[2,0,0],"split_type":[0,0,0],"sum_hessian":[4.674241E1,1.6814646E1,2.9927761E1],"tree_param":{"num_deleted":"0","num_feature":"4","num_nodes":"3","size_leaf_vector":"0"}},{"base_weights":[2.2495411E-2,2.8983188E-1,-6.100208E-1,-5.8652055E-1,7.3528033E-1,8.3438396E-1,-3.086617E-2,8.5827845E-1,3.0303296E-1,-4.0230978E-1,3.2729676E-1],"categories":[],"categories_nodes":[],"categories_segments":[],"categories_sizes":[],"default_left":[1,1,0,0,1,1,1,0,0,0,0],"id":19,"left_children":[1,3,-1,-1,5,7,9,-1,-1,-1,-1],"loss_changes":[8.542133E0,1.4270577E1,0E0,0E0,1.8440952E0,9.594917E-3,6.248841E-1,0E0,0E0,0E0,0E0],"parents":[2147483647,0,0,1,1,4,4,5,5,6,6],"right_children":[2,4,-1,-1,6,8,10,-1,-1,-1,-1],"split_conditions":[1.75E0,2.35E0,-6.1002083E-2,-5.8652055E-2,4.95E0,1.55E0,1.55E0,8.582785E-2,3.0303298E-2,-4.023098E-2,3.2729678E-2],"split_indices":[3,2,0,0,2,3,3,0,0,0,0],"split_type":[0,0,0,0,0,0,0,0,0,0,0],"sum_hessian":[4.847129E1,3.445182E1,1.4019471E1,1.1503576E1,2.2948242E1,2.0240942E1,2.7073002E0,1.8781096E1,1.4598478E0,1.2685026E0,1.4387977E0],"tree_param":{"num_deleted":"0","num_feature":"4","num_nodes":"11","size_leaf_vector":"0"}},{"base_weights":[5.914506E-2,-5.962228E-1,8.0019474E-1,-6.2618846E-1,-1.1721393E-2,2.231942E-1,8.927293E-1,-1.001939E-1,4.4588846E-1],"categories":[],"categories_nodes":[],"categories_segments":[],"categories_sizes":[],"default_left":[1,1,1,0,0,1,0,0,0],"id":20,"left_children":[1,3,5,-1,-1,7,-1,-1,-1],"loss_changes":[2.49515E1,4.7110176E-1,1.0863295E0,0E0,0E0,3.8035256E-1,0E0,0E0,0E0],"parents":[2147483647,0,0,1,1,2,2,5,5],"right_children":[2,4,6,-1,-1,8,-1,-1,-1],"split_conditions":[4.75E0,1.55E0,1.75E0,-6.2618844E-2,-1.1721393E-3,5.05E0,8.927293E-2,-1.0019391E-2,4.4588845E-2],"split_indices":[2,3,3,0,0,2,0,0,0],"split_type":[0,0,0,0,0,0,0,0,0],"sum_hessian":[4.9394093E1,2.631613E1,2.3077965E1,2.496493E1,1.3512E0,3.661104E0,1.941686E1,1.7173367E0,1.9437673E0],"tree_param":{"num_deleted":"0","num_feature":"4","num_nodes":"9","size_leaf_vector":"0"}},{"base_weights":[-8.245642E-2,8.1269616E-1,-6.1204106E-1],"categories":[],"categories_nodes":[],"categories_segments":[],"categories_sizes":[],"default_left":[1,0,0],"id":21,"left_children":[1,-1,-1],"loss_changes":[2.2348082E1,0E0,0E0],"parents":[2147483647,0,0],"right_children":[2,-1,-1],"split_conditions":[2.35E0,8.1269614E-2,-6.1204106E-2],"split_indices":[2,0,0],"split_type":[0,0,0],"sum_hessian":[4.509273E1,1.6562567E1,2.8530165E1],"tree_param":{"num_deleted":"0","num_feature":"4","num_nodes":"3","size_leaf_vector":"0"}},{"base_weights":[2.4995472E-2,2.6841778E-1,-5.8748627E-1,-5.82389E-1,7.00578E-1,7.943161E-1,-2.3301532E-2,-3.9497283E-1,3.291595E-1],"categories":[],"categories_nodes":[],"categories_segments":[],"categories_sizes":[],"default_left":[1,1,0,0,1,0,1,0,0],"id":22,"left_children":[1,3,-1,-1,5,-1,7,-1,-1],"loss_changes":[7.3004827E0,1.3265829E1,0E0,0E0,1.6228943E0,0E0,6.12385E-1,0E0,0E0],"parents":[2147483647,0,0,1,1,4,4,6,6],"right_children":[2,4,-1,-1,6,-1,8,-1,-1],"split_conditions":[1.75E0,2.35E0,-5.874863E-2,-5.82389E-2,4.95E0,7.9431616E-2,1.55E0,-3.9497282E-2,3.291595E-2],"split_indices":[3,2,0,0,2,0,3,0,0],"split_type":[0,0,0,0,0,0,0,0,0],"sum_hessian":[4.69087E1,3.3969677E1,1.2939019E1,1.1325399E1,2.2644278E1,1.996201E1,2.6822681E0,1.2468483E0,1.4354199E0],"tree_param":{"num_deleted":"0","num_feature":"4","num_nodes":"9","size_leaf_vector":"0"}},{"base_weights":[5.4096557E-2,-5.7475007E-1,7.2974724E-1,-6.05796E-1,-1.1621865E-2,2.0664127E-1,8.154711E-1,-9.391092E-2,4.1054168E-1],"categories":[],"categories_nodes":[],"categories_segments":[],"categories_sizes":[],"default_left":[1,1,1,0,0,1,0,0,0],"id":23,"left_children":[1,3,5,-1,-1,7,-1,-1,-1],"loss_changes":[2.0864803E1,4.3847084E-1,8.914566E-1,0E0,0E0,3.2459676E-1,0E0,0E0,0E0],"parents":[2147483647,0,0,1,1,2,2,5,5],"right_children":[2,4,6,-1,-1,8,-1,-1,-1],"split_conditions":[4.75E0,1.55E0,1.75E0,-6.0579598E-2,-1.1621866E-3,5.05E0,8.154711E-2,-9.391092E-3,4.105417E-2],"split_indices":[2,3,3,0,0,2,0,0,0],"split_type":[0,0,0,0,0,0,0,0,0],"sum_hessian":[4.7120293E1,2.4482811E1,2.2637482E1,2.313176E1,1.3510513E0,3.6675882E0,1.8969894E1,1.7004814E0,1.9671067E0],"tree_param":{"num_deleted":"0","num_feature":"4","num_nodes":"9","size_leaf_vector":"0"}},{"base_weights":[-7.989813E-2,7.6671636E-1,-5.981352E-1],"categories":[],"categories_nodes":[],"categories_segments":[],"categories_sizes":[],"default_left":[1,0,0],"id":24,"left_children":[1,-1,-1],"loss_changes":[1.972957E1,0E0,0E0],"parents":[2147483647,0,0],"right_children":[2,-1,-1],"split_conditions":[2.35E0,7.667164E-2,-5.9813518E-2],"split_indices":[2,0,0],"split_type":[0,0,0],"sum_hessian":[4.2922737E1,1.6115799E1,2.6806938E1],"tree_param":{"num_deleted":"0","num_feature":"4","num_nodes":"3","size_leaf_vector":"0"}},{"base_weights":[2.3392472E-2,2.5461695E-1,-5.72572E-1,-5.673213E-1,6.570032E-1,7.4724317E-1,-2.5165949E-2,7.715901E-1,2.6049405E-1,-3.8886234E-1,3.1669542E-1],"categories":[],"categories_nodes":[],"categories_segments":[],"categories_sizes":[],"default_left":[1,1,0,0,1,1,1,0,0,0,0],"id":25,"left_children":[1,3,-1,-1,5,7,9,-1,-1,-1,-1],"loss_changes":[6.479039E0,1.1553092E1,0E0,0E0,1.4443626E0,4.176712E-2,5.798172E-1,0E0,0E0,0E0,0E0],"parents":[2147483647,0,0,1,1,4,4,5,5,6,6],"right_children":[2,4,-1,-1,6,8,10,-1,-1,-1,-1],"split_conditions":[1.75E0,2.35E0,-5.72572E-2,-5.673213E-2,4.95E0,1.55E0,1.55E0,7.715901E-2,2.6049405E-2,-3.8886234E-2,3.1669542E-2],"split_indices":[3,2,0,0,2,3,3,0,0,0,0],"split_type":[0,0,0,0,0,0,0,0,0,0,0],"sum_hessian":[4.4959225E1,3.2804413E1,1.2154811E1,1.0646777E1,2.2157635E1,1.9484728E1,2.6729064E0,1.7999226E1,1.4855038E0,1.2284783E0,1.444428E0],"tree_param":{"num_deleted":"0","num_feature":"4","num_nodes":"11","size_leaf_vector":"0"}},{"base_weights":[5.2746207E-2,-5.5883735E-1,6.8711346E-1,-5.915043E-1,-2.170762E-3,1.9602108E-1,7.6943743E-1,-8.950638E-2,3.8762575E-1],"categories":[],"categories_nodes":[],"categories_segments":[],"categories_sizes":[],"default_left":[1,1,1,0,0,1,0,0,0],"id":26,"left_children":[1,3,5,-1,-1,7,-1,-1,-1],"loss_changes":[1.8288763E1,4.36028E-1,7.831421E-1,0E0,0E0,2.8955352E-1,0E0,0E0,0E0],"parents":[2147483647,0,0,1,1,2,2,5,5],"right_children":[2,4,6,-1,-1,8,-1,-1,-1],"split_conditions":[4.75E0,1.55E0,1.75E0,-5.9150428E-2,-2.170762E-4,5.05E0,7.694375E-2,-8.950639E-3,3.8762577E-2],"split_indices":[2,3,3,0,0,2,0,0,0],"split_type":[0,0,0,0,0,0,0,0,0],"sum_hessian":[4.5150078E1,2.3048471E1,2.2101608E1,2.1711773E1,1.3366979E0,3.6584902E0,1.8443117E1,1.683144E0,1.9753461E0],"tree_param":{"num_deleted":"0","num_feature":"4","num_nodes":"9","size_leaf_vector":"0"}},{"base_weights":[-7.782318E-2,7.2793525E-1,-5.8561766E-1],"categories":[],"categories_nodes":[],"categories_segments":[],"categories_sizes":[],"default_left":[1,0,0],"id":27,"left_children":[1,-1,-1],"loss_changes":[1.7484129E1,0E0,0E0],"parents":[2147483647,0,0],"right_children":[2,-1,-1],"split_conditions":[2.35E0,7.279353E-2,-5.856177E-2],"split_indices":[2,0,0],"split_type":[0,0,0],"sum_hessian":[4.0689926E1,1.5562357E1,2.5127571E1],"tree_param":{"num_deleted":"0","num_feature":"4","num_nodes":"3","size_leaf_vector":"0"}},{"base_weights":[2.2284282E-2,2.430165E-1,-5.588309E-1,-5.533959E-1,6.2046784E-1,7.0848376E-1,-2.6641216E-2,7.3275405E-1,2.4517272E-1,-3.827892E-1,3.0519345E-1],"categories":[],"categories_nodes":[],"categories_segments":[],"categories_sizes":[],"default_left":[1,1,0,0,1,1,1,0,0,0,0],"id":28,"left_children":[1,3,-1,-1,5,7,9,-1,-1,-1,-1],"loss_changes":[5.766794E0,1.0116573E1,0E0,0E0,1.3020372E0,4.3758392E-2,5.49507E-1,0E0,0E0,0E0,0E0],"parents":[2147483647,0,0,1,1,4,4,5,5,6,6],"right_children":[2,4,-1,-1,6,8,10,-1,-1,-1,-1],"split_conditions":[1.75E0,2.35E0,-5.588309E-2,-5.5339593E-2,4.95E0,1.55E0,1.55E0,7.327541E-2,2.4517274E-2,-3.827892E-2,3.0519346E-2],"split_indices":[3,2,0,0,2,3,3,0,0,0,0],"split_type":[0,0,0,0,0,0,0,0,0,0,0],"sum_hessian":[4.289922E1,3.151159E1,1.13876295E1,9.982545E0,2.1529045E1,1.88679E1,2.6611443E0,1.7376102E1,1.4917977E0,1.209486E0,1.4516582E0],"tree_param":{"num_deleted":"0","num_feature":"4","num_nodes":"11","size_leaf_vector":"0"}},{"base_weights":[5.1404662E-2,-5.444849E-1,6.506258E-1,-5.783863E-1,-2.3380662E-3,1.8645123E-1,7.3067236E-1,-8.495015E-2,3.666285E-1],"categories":[],"categories_nodes":[],"categories_segments":[],"categories_sizes":[],"default_left":[1,1,1,0,0,1,0,0,0],"id":29,"left_children":[1,3,5,-1,-1,7,-1,-1,-1],"loss_changes":[1.6095715E1,4.149146E-1,6.974144E-1,0E0,0E0,2.581747E-1,0E0,0E0,0E0],"parents":[2147483647,0,0,1,1,2,2,5,5],"right_children":[2,4,6,-1,-1,8,-1,-1,-1],"split_conditions":[4.75E0,1.55E0,1.75E0,-5.783863E-2,-2.3380663E-4,5.05E0,7.306724E-2,-8.495015E-3,3.666285E-2],"split_indices":[2,3,3,0,0,2,0,0,0],"split_type":[0,0,0,0,0,0,0,0,0],"sum_hessian":[4.3085125E1,2.1648417E1,2.1436708E1,2.031146E1,1.336956E0,3.6426969E0,1.7794012E1,1.664291E0,1.9784057E0],"tree_param":{"num_deleted":"0","num_feature":"4","num_nodes":"9","size_leaf_vector":"0"}},{"base_weights":[-7.607543E-2,6.948378E-1,-5.7423854E-1],"categories":[],"categories_nodes":[],"categories_segments":[],"categories_sizes":[],"default_left":[1,0,0],"id":30,"left_children":[1,-1,-1],"loss_changes":[1.5542563E1,0E0,0E0],"parents":[2147483647,0,0],"right_children":[2,-1,-1],"split_conditions":[2.35E0,6.948378E-2,-5.7423856E-2],"split_indices":[2,0,0],"split_type":[0,0,0],"sum_hessian":[3.8432194E1,1.4931194E1,2.3500998E1],"tree_param":{"num_deleted":"0","num_feature":"4","num_nodes":"3","size_leaf_vector":"0"}},{"base_weights":[2.1282246E-2,2.3269928E-1,-5.460934E-1,-5.404464E-1,5.885194E-1,6.751171E-1,-2.7792107E-2,6.9966745E-1,2.3089914E-1,-3.7677884E-1,2.9453862E-1],"categories":[],"categories_nodes":[],"categories_segments":[],"categories_sizes":[],"default_left":[1,1,0,0,1,1,1,0,0,0,0],"id":31,"left_children":[1,3,-1,-1,5,7,9,-1,-1,-1,-1],"loss_changes":[5.140034E0,8.8867235E0,0E0,0E0,1.1827474E0,4.7421455E-2,5.212617E-1,0E0,0E0,0E0,0E0],"parents":[2147483647,0,0,1,1,4,4,5,5,6,6],"right_children":[2,4,-1,-1,6,8,10,-1,-1,-1,-1],"split_conditions":[1.75E0,2.35E0,-5.460934E-2,-5.404464E-2,4.95E0,1.55E0,1.55E0,6.996675E-2,2.3089914E-2,-3.7677884E-2,2.9453862E-2],"split_indices":[3,2,0,0,2,3,3,0,0,0,0],"split_type":[0,0,0,0,0,0,0,0,0,0,0],"sum_hessian":[4.0791065E1,3.0147348E1,1.0643718E1,9.33811E0,2.0809238E1,1.8161901E1,2.6473367E0,1.6665787E1,1.4961138E0,1.1900032E0,1.4573337E0],"tree_param":{"num_deleted":"0","num_feature":"4","num_nodes":"11","size_leaf_vector":"0"}},{"base_weights":[5.0284967E-2,-5.3107667E-1,6.1896074E-1,-5.663908E-1,-2.265714E-3,1.7764683E-1,6.9764054E-1,-8.050464E-2,3.4731412E-1],"categories":[],"categories_nodes":[],"categories_segments":[],"categories_sizes":[],"default_left":[1,1,1,0,0,1,0,0,0],"id":32,"left_children":[1,3,5,-1,-1,7,-1,-1,-1],"loss_changes":[1.4203942E1,3.963194E-1,6.2877274E-1,0E0,0E0,2.3038924E-1,0E0,0E0,0E0],"parents":[2147483647,0,0,1,1,2,2,5,5],"right_children":[2,4,6,-1,-1,8,-1,-1,-1],"split_conditions":[4.75E0,1.55E0,1.75E0,-5.6639083E-2,-2.2657141E-4,5.05E0,6.9764055E-2,-8.050464E-3,3.4731414E-2],"split_indices":[2,3,3,0,0,2,0,0,0],"split_type":[0,0,0,0,0,0,0,0,0],"sum_hessian":[4.0969032E1,2.0291248E1,2.0677782E1,1.8954405E1,1.3368443E0,3.6216774E0,1.7056105E1,1.6447219E0,1.9769557E0],"tree_param":{"num_deleted":"0","num_feature":"4","num_nodes":"9","size_leaf_vector":"0"}},{"base_weights":[-7.46038E-2,6.662847E-1,-5.6384265E-1],"categories":[],"categories_nodes":[],"categories_segments":[],"categories_sizes":[],"default_left":[1,0,0],"id":33,"left_children":[1,-1,-1],"loss_changes":[1.38538065E1,0E0,0E0],"parents":[2147483647,0,0],"right_children":[2,-1,-1],"split_conditions":[2.35E0,6.662847E-2,-5.6384265E-2],"split_indices":[2,0,0],"split_type":[0,0,0],"sum_hessian":[3.6183968E1,1.4246945E1,2.1937023E1],"tree_param":{"num_deleted":"0","num_feature":"4","num_nodes":"3","size_leaf_vector":"0"}},{"base_weights":[2.0363538E-2,2.2342622E-1,-5.34209E-1,-5.283255E-1,5.602311E-1,6.4604676E-1,-2.8673172E-2,6.711765E-1,2.1757387E-1,-3.7085044E-1,2.8463292E-1],"categories":[],"categories_nodes":[],"categories_segments":[],"categories_sizes":[],"default_left":[1,1,0,0,1,1,1,0,0,0,0],"id":34,"left_children":[1,3,-1,-1,5,7,9,-1,-1,-1,-1],"loss_changes":[4.586937E0,7.8270097E0,0E0,0E0,1.0811443E0,5.2032948E-2,4.9490798E-1,0E0,0E0,0E0,0E0],"parents":[2147483647,0,0,1,1,4,4,5,5,6,6],"right_children":[2,4,-1,-1,6,8,10,-1,-1,-1,-1],"split_conditions":[1.75E0,2.35E0,-5.34209E-2,-5.283255E-2,4.95E0,1.55E0,1.55E0,6.7117654E-2,2.1757387E-2,-3.7085045E-2,2.8463293E-2],"split_indices":[3,2,0,0,2,3,3,0,0,0,0],"split_type":[0,0,0,0,0,0,0,0,0,0,0],"sum_hessian":[3.8671986E1,2.8744131E1,9.927853E0,8.717638E0,2.0026493E1,1.7394691E1,2.6318018E0,1.5895963E1,1.4987292E0,1.1701521E0,1.4616497E0],"tree_param":{"num_deleted":"0","num_feature":"4","num_nodes":"11","size_leaf_vector":"0"}},{"base_weights":[4.9352653E-2,-5.1845723E-1,5.911539E-1,-5.553597E-1,-2.0026313E-3,1.6951801E-1,6.691914E-1,-7.619012E-2,3.2948542E-1],"categories":[],"categories_nodes":[],"categories_segments":[],"categories_sizes":[],"default_left":[1,1,1,0,0,1,0,0,0],"id":35,"left_children":[1,3,5,-1,-1,7,-1,-1,-1],"loss_changes":[1.2562827E1,3.79786E-1,5.727315E-1,0E0,0E0,2.0575802E-1,0E0,0E0,0E0],"parents":[2147483647,0,0,1,1,2,2,5,5],"right_children":[2,4,6,-1,-1,8,-1,-1,-1],"split_conditions":[4.75E0,1.55E0,1.75E0,-5.5535972E-2,-2.0026314E-4,5.05E0,6.691914E-2,-7.619012E-3,3.2948542E-2],"split_indices":[2,3,3,0,0,2,0,0,0],"split_type":[0,0,0,0,0,0,0,0,0],"sum_hessian":[3.8839863E1,1.8985779E1,1.9854086E1,1.764934E1,1.3364382E0,3.5961876E0,1.6257898E1,1.6245743E0,1.9716134E0],"tree_param":{"num_deleted":"0","num_feature":"4","num_nodes":"9","size_leaf_vector":"0"}},{"base_weights":[-6.966923E-2,6.7872244E-1,-5.665874E-1],"categories":[],"categories_nodes":[],"categories_segments":[],"categories_sizes":[],"default_left":[1,0,0],"id":36,"left_children":[1,-1,-1],"loss_changes":[1.4464189E1,0E0,0E0],"parents":[2147483647,0,0],"right_children":[2,-1,-1],"split_conditions":[2.35E0,6.787225E-2,-5.665874E-2],"split_indices":[2,0,0],"split_type":[0,0,0],"sum_hessian":[3.685973E1,1.4562211E1,2.2297518E1],"tree_param":{"num_deleted":"0","num_feature":"4","num_nodes":"3","size_leaf_vector":"0"}},{"base_weights":[8.779929E-3,2.1071535E-1,-5.3464615E-1,-5.289025E-1,5.490035E-1,6.349656E-1,-3.0976603E-2,6.603427E-1,2.1271627E-1,-3.6524308E-1,2.7319503E-1],"categories":[],"categories_nodes":[],"categories_segments":[],"categories_sizes":[],"default_left":[1,1,0,0,1,1,1,0,0,0,0],"id":37,"left_children":[1,3,-1,-1,5,7,9,-1,-1,-1,-1],"loss_changes":[4.435242E0,7.6553583E0,0E0,0E0,1.0511217E0,5.3103924E-2,4.6825323E-1,0E0,0E0,0E0,0E0],"parents":[2147483647,0,0,1,1,4,4,5,5,6,6],"right_children":[2,4,-1,-1,6,8,10,-1,-1,-1,-1],"split_conditions":[1.75E0,2.35E0,-5.3464618E-2,-5.289025E-2,4.95E0,1.55E0,1.55E0,6.603427E-2,2.1271627E-2,-3.6524307E-2,2.7319504E-2],"split_indices":[3,2,0,0,2,3,3,0,0,0,0],"split_type":[0,0,0,0,0,0,0,0,0,0,0],"sum_hessian":[3.8390408E1,2.8435946E1,9.954462E0,8.74745E0,1.9688496E1,1.7064468E1,2.624026E0,1.5565137E1,1.4993322E0,1.1545095E0,1.4695165E0],"tree_param":{"num_deleted":"0","num_feature":"4","num_nodes":"11","size_leaf_vector":"0"}},{"base_weights":[5.6694034E-2,-5.208508E-1,6.057248E-1,-5.578841E-1,3.8825853E-3,1.8173352E-1,6.812942E-1,-6.952922E-2,3.4078684E-1],"categories":[],"categories_nodes":[],"categories_segments":[],"categories_sizes":[],"default_left":[1,1,1,0,0,1,0,0,0],"id":38,"left_children":[1,3,5,-1,-1,7,-1,-1,-1],"loss_changes":[1.3133629E1,3.9544868E-1,5.550041E-1,0E0,0E0,2.0627652E-1,0E0,0E0,0E0],"parents":[2147483647,0,0,1,1,2,2,5,5],"right_children":[2,4,6,-1,-1,8,-1,-1,-1],"split_conditions":[4.75E0,1.55E0,1.75E0,-5.578841E-2,3.8825854E-4,5.05E0,6.812942E-2,-6.9529223E-3,3.4078684E-2],"split_indices":[2,3,3,0,0,2,0,0,0],"split_type":[0,0,0,0,0,0,0,0,0],"sum_hessian":[3.9424305E1,1.9238245E1,2.018606E1,1.791099E1,1.327255E0,3.5686386E0,1.661742E1,1.6015164E0,1.9671222E0],"tree_param":{"num_deleted":"0","num_feature":"4","num_nodes":"9","size_leaf_vector":"0"}},{"base_weights":[-7.286627E-2,6.3046354E-1,-5.4994524E-1],"categories":[],"categories_nodes":[],"categories_segments":[],"categories_sizes":[],"default_left":[1,0,0],"id":39,"left_children":[1,-1,-1],"loss_changes":[1.1729478E1,0E0,0E0],"parents":[2147483647,0,0],"right_children":[2,-1,-1],"split_conditions":[2.35E0,6.304636E-2,-5.4994524E-2],"split_indices":[2,0,0],"split_type":[0,0,0],"sum_hessian":[3.2923313E1,1.3176482E1,1.974683E1],"tree_param":{"num_deleted":"0","num_feature":"4","num_nodes":"3","size_leaf_vector":"0"}},{"base_weights":[1.915881E-2,2.1119991E-1,-5.177941E-1,-5.115163E-1,5.2342707E-1,6.08952E-1,-2.9413585E-2,6.354113E-1,1.993346E-1,-3.6213002E-1,2.7125543E-1],"categories":[],"categories_nodes":[],"categories_segments":[],"categories_sizes":[],"default_left":[1,1,0,0,1,1,1,0,0,0,0],"id":40,"left_children":[1,3,-1,-1,5,7,9,-1,-1,-1,-1],"loss_changes":[3.8790238E0,6.5040936E0,0E0,0E0,9.537873E-1,5.9626102E-2,4.5894223E-1,0E0,0E0,0E0,0E0],"parents":[2147483647,0,0,1,1,4,4,5,5,6,6],"right_children":[2,4,-1,-1,6,8,10,-1,-1,-1,-1],"split_conditions":[1.75E0,2.35E0,-5.1779408E-2,-5.115163E-2,4.95E0,1.55E0,1.55E0,6.354114E-2,1.993346E-2,-3.6213003E-2,2.7125543E-2],"split_indices":[3,2,0,0,2,3,3,0,0,0,0],"split_type":[0,0,0,0,0,0,0,0,0,0,0],"sum_hessian":[3.5557163E1,2.6637083E1,8.920078E0,7.8434544E0,1.8793629E1,1.6187857E1,2.605772E0,1.4687859E1,1.4999981E0,1.1399283E0,1.4658439E0],"tree_param":{"num_deleted":"0","num_feature":"4","num_nodes":"11","size_leaf_vector":"0"}},{"base_weights":[4.8242368E-2,-5.008929E-1,5.554352E-1,-5.4047275E-1,-1.3235139E-3,1.5846477E-1,6.3358533E-1,3.0241126E-1,-9.284857E-2],"categories":[],"categories_nodes":[],"categories_segments":[],"categories_sizes":[],"default_left":[1,1,1,0,0,1,0,0,0],"id":41,"left_children":[1,3,5,-1,-1,7,-1,-1,-1],"loss_changes":[1.0505446E1,3.583002E-1,5.065179E-1,0E0,0E0,1.9272831E-1,0E0,0E0,0E0],"parents":[2147483647,0,0,1,1,2,2,5,5],"right_children":[2,4,6,-1,-1,8,-1,-1,-1],"split_conditions":[4.75E0,1.55E0,1.75E0,-5.4047275E-2,-1.323514E-4,1.55E0,6.335854E-2,3.0241126E-2,-9.284857E-3],"split_indices":[2,3,3,0,0,3,0,0,0],"split_type":[0,0,0,0,0,0,0,0,0],"sum_hessian":[3.5720257E1,1.715694E1,1.8563316E1,1.5821553E1,1.3353876E0,3.5513964E0,1.5011921E1,2.128765E0,1.422631E0],"tree_param":{"num_deleted":"0","num_feature":"4","num_nodes":"9","size_leaf_vector":"0"}},{"base_weights":[-7.188561E-2,6.0982627E-1,-5.413844E-1],"categories":[],"categories_nodes":[],"categories_segments":[],"categories_sizes":[],"default_left":[1,0,0],"id":42,"left_children":[1,-1,-1],"loss_changes":[1.05100565E1,0E0,0E0],"parents":[2147483647,0,0],"right_children":[2,-1,-1],"split_conditions":[2.35E0,6.0982626E-2,-5.413844E-2],"split_indices":[2,0,0],"split_type":[0,0,0],"sum_hessian":[3.0805956E1,1.2441711E1,1.8364244E1],"tree_param":{"num_deleted":"0","num_feature":"4","num_nodes":"3","size_leaf_vector":"0"}},{"base_weights":[1.8372267E-2,2.0370714E-1,-5.074885E-1,-5.0092596E-1,5.0124586E-1,5.8766544E-1,-3.267311E-2,6.153198E-1,1.8802086E-1,-3.5466906E-1,2.5606665E-1],"categories":[],"categories_nodes":[],"categories_segments":[],"categories_sizes":[],"default_left":[1,1,0,0,1,1,1,0,0,0,0],"id":43,"left_children":[1,3,-1,-1,5,7,9,-1,-1,-1,-1],"loss_changes":[3.4694579E0,5.754768E0,0E0,0E0,8.939018E-1,6.521416E-2,4.2442957E-1,0E0,0E0,0E0,0E0],"parents":[2147483647,0,0,1,1,4,4,5,5,6,6],"right_children":[2,4,-1,-1,6,8,10,-1,-1,-1,-1],"split_conditions":[1.75E0,2.35E0,-5.074885E-2,-5.0092597E-2,4.95E0,1.55E0,1.55E0,6.153198E-2,1.8802086E-2,-3.5466906E-2,2.5606666E-2],"split_indices":[3,2,0,0,2,3,3,0,0,0,0],"split_type":[0,0,0,0,0,0,0,0,0,0,0],"sum_hessian":[3.3537937E1,2.5251053E1,8.286884E0,7.2939377E0,1.7957115E1,1.5368862E1,2.5882523E0,1.3869465E1,1.4993975E0,1.1157069E0,1.4725454E0],"tree_param":{"num_deleted":"0","num_feature":"4","num_nodes":"11","size_leaf_vector":"0"}},{"base_weights":[4.7616214E-2,-4.896733E-1,5.33927E-1,-5.3126657E-1,-7.52149E-4,1.5106244E-1,6.131184E-1,2.884607E-1,-8.81643E-2],"categories":[],"categories_nodes":[],"categories_segments":[],"categories_sizes":[],"default_left":[1,1,1,0,0,1,0,0,0],"id":44,"left_children":[1,3,5,-1,-1,7,-1,-1,-1],"loss_changes":[9.325838E0,3.45376E-1,4.739852E-1,0E0,0E0,1.743238E-1,0E0,0E0,0E0],"parents":[2147483647,0,0,1,1,2,2,5,5],"right_children":[2,4,6,-1,-1,8,-1,-1,-1],"split_conditions":[4.75E0,1.55E0,1.75E0,-5.312666E-2,-7.52149E-5,1.55E0,6.131184E-2,2.884607E-2,-8.81643E-3],"split_indices":[2,3,3,0,0,3,0,0,0],"split_type":[0,0,0,0,0,0,0,0,0],"sum_hessian":[3.3690956E1,1.6003233E1,1.7687725E1,1.4668731E1,1.3345019E0,3.5298104E0,1.4157914E1,2.1113605E0,1.41845E0],"tree_param":{"num_deleted":"0","num_feature":"4","num_nodes":"9","size_leaf_vector":"0"}},{"base_weights":[-7.10558E-2,5.9142613E-1,-5.3339374E-1],"categories":[],"categories_nodes":[],"categories_segments":[],"categories_sizes":[],"default_left":[1,0,0],"id":45,"left_children":[1,-1,-1],"loss_changes":[9.43366E0,0E0,0E0],"parents":[2147483647,0,0],"right_children":[2,-1,-1],"split_conditions":[2.35E0,5.9142616E-2,-5.3339373E-2],"split_indices":[2,0,0],"split_type":[0,0,0],"sum_hessian":[2.8769764E1,1.1710555E1,1.7059208E1],"tree_param":{"num_deleted":"0","num_feature":"4","num_nodes":"3","size_leaf_vector":"0"}},{"base_weights":[1.7605796E-2,1.967201E-1,-4.976338E-1,-4.907718E-1,4.8082244E-1,5.6842273E-1,-3.5692956E-2,5.9747E-1,1.7740339E-1,-3.473635E-1,2.4182998E-1],"categories":[],"categories_nodes":[],"categories_segments":[],"categories_sizes":[],"default_left":[1,1,0,0,1,1,1,0,0,0,0],"id":46,"left_children":[1,3,-1,-1,5,7,9,-1,-1,-1,-1],"loss_changes":[3.1052413E0,5.098921E0,0E0,0E0,8.402729E-1,7.066536E-2,3.9268684E-1,0E0,0E0,0E0,0E0],"parents":[2147483647,0,0,1,1,4,4,5,5,6,6],"right_children":[2,4,-1,-1,6,8,10,-1,-1,-1,-1],"split_conditions":[1.75E0,2.35E0,-4.976338E-2,-4.907718E-2,4.95E0,1.55E0,1.55E0,5.9747E-2,1.7740339E-2,-3.473635E-2,2.4182998E-2],"split_indices":[3,2,0,0,2,3,3,0,0,0,0],"split_type":[0,0,0,0,0,0,0,0,0,0,0],"sum_hessian":[3.1586967E1,2.3897577E1,7.68939E0,6.7751412E0,1.7122437E1,1.4553659E1,2.5687768E0,1.3055817E1,1.4978436E0,1.0914137E0,1.477363E0],"tree_param":{"num_deleted":"0","num_feature":"4","num_nodes":"11","size_leaf_vector":"0"}},{"base_weights":[4.7102343E-2,-4.7882965E-1,5.143392E-1,-5.226019E-1,-1.0687203E-4,1.4421624E-1,5.949089E-1,-7.737691E-2,2.90492E-1],"categories":[],"categories_nodes":[],"categories_segments":[],"categories_sizes":[],"default_left":[1,1,1,0,0,1,0,0,0],"id":47,"left_children":[1,3,5,-1,-1,7,-1,-1,-1],"loss_changes":[8.288853E0,3.3344126E-1,4.4541788E-1,0E0,0E0,1.6848472E-1,0E0,0E0,0E0],"parents":[2147483647,0,0,1,1,2,2,5,5],"right_children":[2,4,6,-1,-1,8,-1,-1,-1],"split_conditions":[4.75E0,1.55E0,1.75E0,-5.226019E-2,-1.0687203E-5,5.05E0,5.949089E-2,-7.737691E-3,2.9049201E-2],"split_indices":[2,3,3,0,0,2,0,0,0],"split_type":[0,0,0,0,0,0,0,0,0],"sum_hessian":[3.1728662E1,1.4915095E1,1.6813566E1,1.3581596E1,1.3334996E0,3.5044937E0,1.3309073E1,1.5807842E0,1.9237095E0],"tree_param":{"num_deleted":"0","num_feature":"4","num_nodes":"9","size_leaf_vector":"0"}},{"base_weights":[-7.038145E-2,5.74876E-1,-5.259343E-1],"categories":[],"categories_nodes":[],"categories_segments":[],"categories_sizes":[],"default_left":[1,0,0],"id":48,"left_children":[1,-1,-1],"loss_changes":[8.481371E0,0E0,0E0],"parents":[2147483647,0,0],"right_children":[2,-1,-1],"split_conditions":[2.35E0,5.7487603E-2,-5.259343E-2],"split_indices":[2,0,0],"split_type":[0,0,0],"sum_hessian":[2.682465E1,1.09925585E1,1.5832091E1],"tree_param":{"num_deleted":"0","num_feature":"4","num_nodes":"3","size_leaf_vector":"0"}},{"base_weights":[1.6852302E-2,1.9021149E-1,-4.8814398E-1,-4.8097062E-1,4.6206653E-1,5.504895E-1,-3.5659045E-2,5.810912E-1,1.6742896E-1,-3.4187672E-1,2.3476443E-1],"categories":[],"categories_nodes":[],"categories_segments":[],"categories_sizes":[],"default_left":[1,1,0,0,1,1,1,0,0,0,0],"id":49,"left_children":[1,3,-1,-1,5,7,9,-1,-1,-1,-1],"loss_changes":[2.7811487E0,4.524645E0,0E0,0E0,7.806604E-1,7.5546265E-2,3.7404376E-1,0E0,0E0,0E0,0E0],"parents":[2147483647,0,0,1,1,4,4,5,5,6,6],"right_children":[2,4,-1,-1,6,8,10,-1,-1,-1,-1],"split_conditions":[1.75E0,2.35E0,-4.8814397E-2,-4.8097063E-2,4.95E0,1.55E0,1.55E0,5.8109123E-2,1.6742896E-2,-3.418767E-2,2.3476442E-2],"split_indices":[3,2,0,0,2,3,3,0,0,0,0],"split_type":[0,0,0,0,0,0,0,0,0,0,0],"sum_hessian":[2.970735E1,2.257944E1,7.1279106E0,6.2873645E0,1.6292074E1,1.37443285E1,2.5477455E0,1.2248831E1,1.4954975E0,1.070886E0,1.4768596E0],"tree_param":{"num_deleted":"0","num_feature":"4","num_nodes":"11","size_leaf_vector":"0"}},{"base_weights":[4.6727628E-2,-4.682748E-1,4.966889E-1,-5.1438695E-1,5.900373E-4,1.3837667E-1,5.785664E-1,2.709965E-1,-8.663284E-2],"categories":[],"categories_nodes":[],"categories_segments":[],"categories_sizes":[],"default_left":[1,1,1,0,0,1,0,0,0],"id":50,"left_children":[1,3,5,-1,-1,7,-1,-1,-1],"loss_changes":[7.378046E0,3.2229757E-1,4.169793E-1,0E0,0E0,1.5673566E-1,0E0,0E0,0E0],"parents":[2147483647,0,0,1,1,2,2,5,5],"right_children":[2,4,6,-1,-1,8,-1,-1,-1],"split_conditions":[4.75E0,1.55E0,1.75E0,-5.1438697E-2,5.9003734E-5,1.55E0,5.7856638E-2,2.7099652E-2,-8.663285E-3],"split_indices":[2,3,3,0,0,3,0,0,0],"split_type":[0,0,0,0,0,0,0,0,0],"sum_hessian":[2.9835125E1,1.3893101E1,1.5942024E1,1.2560686E1,1.3324146E0,3.4656568E0,1.2476368E1,2.0518973E0,1.4137595E0],"tree_param":{"num_deleted":"0","num_feature":"4","num_nodes":"9","size_leaf_vector":"0"}},{"base_weights":[-7.2114326E-2,5.856511E-1,-5.312457E-1],"categories":[],"categories_nodes":[],"categories_segments":[],"categories_sizes":[],"default_left":[1,0,0],"id":51,"left_children":[1,-1,-1],"loss_changes":[9.120184E0,0E0,0E0],"parents":[2147483647,0,0],"right_children":[2,-1,-1],"split_conditions":[2.35E0,5.856511E-2,-5.3124573E-2],"split_indices":[2,0,0],"split_type":[0,0,0],"sum_hessian":[2.8168995E1,1.1466369E1,1.6702627E1],"tree_param":{"num_deleted":"0","num_feature":"4","num_nodes":"3","size_leaf_vector":"0"}},{"base_weights":[2.1133235E-2,1.9796456E-1,-4.9537718E-1,-4.9074462E-1,4.8292395E-1,5.7098526E-1,-3.5703145E-2,5.9726536E-1,1.9513318E-1,-3.467552E-1,2.4099319E-1],"categories":[],"categories_nodes":[],"categories_segments":[],"categories_sizes":[],"default_left":[1,1,0,0,1,1,1,0,0,0,0],"id":52,"left_children":[1,3,-1,-1,5,7,9,-1,-1,-1,-1],"loss_changes":[3.0593045E0,5.117289E0,0E0,0E0,8.467326E-1,3.681135E-2,3.9060363E-1,0E0,0E0,0E0,0E0],"parents":[2147483647,0,0,1,1,4,4,5,5,6,6],"right_children":[2,4,-1,-1,6,8,10,-1,-1,-1,-1],"split_conditions":[1.75E0,2.35E0,-4.953772E-2,-4.9074464E-2,4.95E0,1.55E0,1.55E0,5.9726536E-2,1.9513318E-2,-3.467552E-2,2.4099318E-2],"split_indices":[3,2,0,0,2,3,3,0,0,0,0],"split_type":[0,0,0,0,0,0,0,0,0,0,0],"sum_hessian":[3.1421635E1,2.386723E1,7.5544043E0,6.773769E0,1.7093462E1,1.452603E1,2.5674312E0,1.3026129E1,1.499901E0,1.0894797E0,1.4779515E0],"tree_param":{"num_deleted":"0","num_feature":"4","num_nodes":"11","size_leaf_vector":"0"}},{"base_weights":[4.4368774E-2,-4.761636E-1,5.0394064E-1,-5.191386E-1,-1.647392E-2,1.3474703E-1,5.875367E-1,-8.772592E-2,2.8714117E-1],"categories":[],"categories_nodes":[],"categories_segments":[],"categories_sizes":[],"default_left":[1,1,1,0,0,1,0,0,0],"id":53,"left_children":[1,3,5,-1,-1,7,-1,-1,-1],"loss_changes":[7.887108E0,2.9771972E-1,4.5980453E-1,0E0,0E0,1.7849337E-1,0E0,0E0,0E0],"parents":[2147483647,0,0,1,1,2,2,5,5],"right_children":[2,4,6,-1,-1,8,-1,-1,-1],"split_conditions":[4.75E0,1.55E0,1.75E0,-5.1913857E-2,-1.6473919E-3,5.05E0,5.875367E-2,-8.772592E-3,2.8714119E-2],"split_indices":[2,3,3,0,0,2,0,0,0],"split_type":[0,0,0,0,0,0,0,0,0],"sum_hessian":[3.0966747E1,1.450341E1,1.6463337E1,1.3145184E1,1.3582267E0,3.5217543E0,1.2941583E1,1.604203E0,1.9175512E0],"tree_param":{"num_deleted":"0","num_feature":"4","num_nodes":"9","size_leaf_vector":"0"}},{"base_weights":[-7.544972E-2,5.760758E-1,-5.278909E-1],"categories":[],"categories_nodes":[],"categories_segments":[],"categories_sizes":[],"default_left":[1,0,0],"id":54,"left_children":[1,-1,-1],"loss_changes":[8.62474E0,0E0,0E0],"parents":[2147483647,0,0],"right_children":[2,-1,-1],"split_conditions":[2.35E0,5.760758E-2,-5.2789092E-2],"split_indices":[2,0,0],"split_type":[0,0,0],"sum_hessian":[2.7226881E1,1.1046463E1,1.6180418E1],"tree_param":{"num_deleted":"0","num_feature":"4","num_nodes":"3","size_leaf_vector":"0"}},{"base_weights":[1.894897E-2,1.9740602E-1,-4.926156E-1,-4.8183253E-1,4.688146E-1,5.5779797E-1,-3.996675E-2,5.876511E-1,1.722047E-1,-3.4195295E-1,2.2852036E-1],"categories":[],"categories_nodes":[],"categories_segments":[],"categories_sizes":[],"default_left":[1,1,0,0,1,1,1,0,0,0,0],"id":55,"left_children":[1,3,-1,-1,5,7,9,-1,-1,-1,-1],"loss_changes":[2.957988E0,4.640305E0,0E0,0E0,8.198273E-1,7.216883E-2,3.664187E-1,0E0,0E0,0E0,0E0],"parents":[2147483647,0,0,1,1,4,4,5,5,6,6],"right_children":[2,4,-1,-1,6,8,10,-1,-1,-1,-1],"split_conditions":[1.75E0,2.35E0,-4.9261563E-2,-4.8183255E-2,4.95E0,1.55E0,1.55E0,5.876511E-2,1.7220471E-2,-3.4195296E-2,2.2852037E-2],"split_indices":[3,2,0,0,2,3,3,0,0,0,0],"split_type":[0,0,0,0,0,0,0,0,0,0,0],"sum_hessian":[3.0336075E1,2.2945686E1,7.3903885E0,6.3296165E0,1.661607E1,1.4060597E1,2.5554712E0,1.2563869E1,1.4967285E0,1.0739245E0,1.4815468E0],"tree_param":{"num_deleted":"0","num_feature":"4","num_nodes":"11","size_leaf_vector":"0"}},{"base_weights":[4.8826776E-2,-4.714649E-1,5.0201374E-1,-5.1650935E-1,-3.774368E-3,1.363219E-1,5.847783E-1,-8.6311586E-2,2.8762588E-1],"categories":[],"categories_nodes":[],"categories_segments":[],"categories_sizes":[],"default_left":[1,1,1,0,0,1,0,0,0],"id":56,"left_children":[1,3,5,-1,-1,7,-1,-1,-1],"loss_changes":[7.6538067E0,3.1741905E-1,4.4379187E-1,0E0,0E0,1.7628065E-1,0E0,0E0,0E0],"parents":[2147483647,0,0,1,1,2,2,5,5],"right_children":[2,4,6,-1,-1,8,-1,-1,-1],"split_conditions":[4.75E0,1.55E0,1.75E0,-5.1650938E-2,-3.774368E-4,5.05E0,5.847783E-2,-8.631159E-3,2.8762588E-2],"split_indices":[2,3,3,0,0,2,0,0,0],"split_type":[0,0,0,0,0,0,0,0,0],"sum_hessian":[3.0456562E1,1.4159775E1,1.6296785E1,1.2820608E1,1.3391674E0,3.4961767E0,1.280061E1,1.5884415E0,1.9077351E0],"tree_param":{"num_deleted":"0","num_feature":"4","num_nodes":"9","size_leaf_vector":"0"}},{"base_weights":[-6.746097E-2,5.9097487E-1,-5.322828E-1],"categories":[],"categories_nodes":[],"categories_segments":[],"categories_sizes":[],"default_left":[1,0,0],"id":57,"left_children":[1,-1,-1],"loss_changes":[9.350803E0,0E0,0E0],"parents":[2147483647,0,0],"right_children":[2,-1,-1],"split_conditions":[2.35E0,5.9097487E-2,-5.3228285E-2],"split_indices":[2,0,0],"split_type":[0,0,0],"sum_hessian":[2.8524845E1,1.1691723E1,1.683312E1],"tree_param":{"num_deleted":"0","num_feature":"4","num_nodes":"3","size_leaf_vector":"0"}},{"base_weights":[1.0553322E-2,1.7933734E-1,-4.8854184E-1,-4.8893267E-1,4.6477836E-1,5.527207E-1,-3.5273384E-2,5.8268386E-1,1.7139806E-1,-3.358039E-1,2.2757696E-1],"categories":[],"categories_nodes":[],"categories_segments":[],"categories_sizes":[],"default_left":[1,1,0,0,1,1,1,0,0,0,0],"id":58,"left_children":[1,3,-1,-1,5,7,9,-1,-1,-1,-1],"loss_changes":[2.7151563E0,4.812975E0,0E0,0E0,7.8281975E-1,6.9476604E-2,3.5575432E-1,0E0,0E0,0E0,0E0],"parents":[2147483647,0,0,1,1,4,4,5,5,6,6],"right_children":[2,4,-1,-1,6,8,10,-1,-1,-1,-1],"split_conditions":[1.75E0,2.35E0,-4.8854183E-2,-4.889327E-2,4.95E0,1.55E0,1.55E0,5.8268387E-2,1.7139805E-2,-3.358039E-2,2.2757696E-2],"split_indices":[3,2,0,0,2,3,3,0,0,0,0],"split_type":[0,0,0,0,0,0,0,0,0,0,0],"sum_hessian":[3.0191412E1,2.3040314E1,7.1510987E0,6.6824846E0,1.635783E1,1.3821724E1,2.5361056E0,1.2325189E1,1.4965345E0,1.05375E0,1.4823555E0],"tree_param":{"num_deleted":"0","num_feature":"4","num_nodes":"11","size_leaf_vector":"0"}},{"base_weights":[5.239054E-2,-4.7224197E-1,5.0995696E-1,-5.1804477E-1,6.7647486E-3,1.5144448E-1,5.880413E-1,-7.333133E-2,2.968054E-1],"categories":[],"categories_nodes":[],"categories_segments":[],"categories_sizes":[],"default_left":[1,1,1,0,0,1,0,0,0],"id":59,"left_children":[1,3,5,-1,-1,7,-1,-1,-1],"loss_changes":[7.8588963E0,3.392532E-1,3.9892912E-1,0E0,0E0,1.676361E-1,0E0,0E0,0E0],"parents":[2147483647,0,0,1,1,2,2,5,5],"right_children":[2,4,6,-1,-1,8,-1,-1,-1],"split_conditions":[4.75E0,1.55E0,1.75E0,-5.180448E-2,6.764749E-4,5.05E0,5.8804132E-2,-7.3331334E-3,2.968054E-2],"split_indices":[2,3,3,0,0,2,0,0,0],"split_type":[0,0,0,0,0,0,0,0,0],"sum_hessian":[3.0734802E1,1.4303149E1,1.6431652E1,1.2980455E1,1.3226938E0,3.4644873E0,1.2967166E1,1.5551838E0,1.9093034E0],"tree_param":{"num_deleted":"0","num_feature":"4","num_nodes":"9","size_leaf_vector":"0"}},{"base_weights":[-7.770382E-2,5.727251E-1,-5.2665967E-1],"categories":[],"categories_nodes":[],"categories_segments":[],"categories_sizes":[],"default_left":[1,0,0],"id":60,"left_children":[1,-1,-1],"loss_changes":[8.46501E0,0E0,0E0],"parents":[2147483647,0,0],"right_children":[2,-1,-1],"split_conditions":[2.35E0,5.7272512E-2,-5.2665967E-2],"split_indices":[2,0,0],"split_type":[0,0,0],"sum_hessian":[2.6955448E1,1.0895218E1,1.606023E1],"tree_param":{"num_deleted":"0","num_feature":"4","num_nodes":"3","size_leaf_vector":"0"}},{"base_weights":[1.5228952E-2,2.1652888E-1,-5.110082E-1,-4.8198843E-1,4.8289096E-1,5.744753E-1,-5.1708486E-2,6.036482E-1,1.772584E-1,-3.5881937E-1,2.3270026E-1],"categories":[],"categories_nodes":[],"categories_segments":[],"categories_sizes":[],"default_left":[1,1,0,0,1,1,1,0,0,0,0],"id":61,"left_children":[1,3,-1,-1,5,7,9,-1,-1,-1,-1],"loss_changes":[3.6348243E0,4.840652E0,0E0,0E0,9.319873E-1,7.6271534E-2,3.9905325E-1,0E0,0E0,0E0,0E0],"parents":[2147483647,0,0,1,1,4,4,5,5,6,6],"right_children":[2,4,-1,-1,6,8,10,-1,-1,-1,-1],"split_conditions":[1.75E0,2.35E0,-5.110082E-2,-4.8198845E-2,4.95E0,1.55E0,1.55E0,6.036482E-2,1.772584E-2,-3.5881937E-2,2.3270026E-2],"split_indices":[3,2,0,0,2,3,3,0,0,0,0],"split_type":[0,0,0,0,0,0,0,0,0,0,0],"sum_hessian":[3.2268444E1,2.3765884E1,8.50256E0,6.3372736E0,1.7428612E1,1.481586E1,2.612752E0,1.3318045E1,1.4978156E0,1.1304424E0,1.4823096E0],"tree_param":{"num_deleted":"0","num_feature":"4","num_nodes":"11","size_leaf_vector":"0"}},{"base_weights":[5.0466828E-2,-4.808238E-1,5.1324815E-1,-5.229706E-1,-1.7789828E-2,1.24110535E-1,6.00045E-1,-1.0551451E-1,2.8956416E-1],"categories":[],"categories_nodes":[],"categories_segments":[],"categories_sizes":[],"default_left":[1,1,1,0,0,1,0,0,0],"id":62,"left_children":[1,3,5,-1,-1,7,-1,-1,-1],"loss_changes":[8.361485E0,3.0061984E-1,5.376458E-1,0E0,0E0,2.0402114E-1,0E0,0E0,0E0],"parents":[2147483647,0,0,1,1,2,2,5,5],"right_children":[2,4,6,-1,-1,8,-1,-1,-1],"split_conditions":[4.75E0,1.55E0,1.75E0,-5.2297063E-2,-1.7789828E-3,5.05E0,6.0004503E-2,-1.0551452E-2,2.8956417E-2],"split_indices":[2,3,3,0,0,2,0,0,0],"split_type":[0,0,0,0,0,0,0,0,0],"sum_hessian":[3.200385E1,1.4880957E1,1.7122894E1,1.3520807E1,1.3601491E0,3.56587E0,1.3557023E1,1.6450528E0,1.9208174E0],"tree_param":{"num_deleted":"0","num_feature":"4","num_nodes":"9","size_leaf_vector":"0"}},{"base_weights":[-6.9809064E-2,5.9809375E-1,-5.359081E-1],"categories":[],"categories_nodes":[],"categories_segments":[],"categories_sizes":[],"default_left":[1,0,0],"id":63,"left_children":[1,-1,-1],"loss_changes":[9.796553E0,0E0,0E0],"parents":[2147483647,0,0],"right_children":[2,-1,-1],"split_conditions":[2.35E0,5.9809376E-2,-5.359081E-2],"split_indices":[2,0,0],"split_type":[0,0,0],"sum_hessian":[2.9439316E1,1.1983792E1,1.7455523E1],"tree_param":{"num_deleted":"0","num_feature":"4","num_nodes":"3","size_leaf_vector":"0"}},{"base_weights":[1.8942043E-2,1.9416897E-1,-4.980001E-1,-4.983044E-1,4.9015144E-1,5.7633483E-1,-3.0170575E-2,6.042639E-1,1.851871E-1,-3.4934035E-1,2.527117E-1],"categories":[],"categories_nodes":[],"categories_segments":[],"categories_sizes":[],"default_left":[1,1,0,0,1,1,1,0,0,0,0],"id":64,"left_children":[1,3,-1,-1,5,7,9,-1,-1,-1,-1],"loss_changes":[3.1133506E0,5.489495E0,0E0,0E0,8.439622E-1,6.139326E-2,4.1056293E-1,0E0,0E0,0E0,0E0],"parents":[2147483647,0,0,1,1,4,4,5,5,6,6],"right_children":[2,4,-1,-1,6,8,10,-1,-1,-1,-1],"split_conditions":[1.75E0,2.35E0,-4.980001E-2,-4.983044E-2,4.95E0,1.55E0,1.55E0,6.042639E-2,1.851871E-2,-3.4934036E-2,2.5271172E-2],"split_indices":[3,2,0,0,2,3,3,0,0,0,0],"split_type":[0,0,0,0,0,0,0,0,0,0,0],"sum_hessian":[3.2302956E1,2.459158E1,7.711374E0,7.1589994E0,1.743258E1,1.4863088E1,2.5694935E0,1.336401E1,1.4990773E0,1.0969254E0,1.4725683E0],"tree_param":{"num_deleted":"0","num_feature":"4","num_nodes":"11","size_leaf_vector":"0"}},{"base_weights":[4.55928E-2,-4.794217E-1,5.1289785E-1,-5.228403E-1,-3.0227664E-3,1.4061971E-1,5.947299E-1,-7.8506246E-2,2.8659877E-1],"categories":[],"categories_nodes":[],"categories_segments":[],"categories_sizes":[],"default_left":[1,1,1,0,0,1,0,0,0],"id":65,"left_children":[1,3,5,-1,-1,7,-1,-1,-1],"loss_changes":[8.285951E0,3.283255E-1,4.5928764E-1,0E0,0E0,1.6712117E-1,0E0,0E0,0E0],"parents":[2147483647,0,0,1,1,2,2,5,5],"right_children":[2,4,6,-1,-1,8,-1,-1,-1],"split_conditions":[4.75E0,1.55E0,1.75E0,-5.2284032E-2,-3.0227666E-4,5.05E0,5.947299E-2,-7.850625E-3,2.8659878E-2],"split_indices":[2,3,3,0,0,2,0,0,0],"split_type":[0,0,0,0,0,0,0,0,0],"sum_hessian":[3.177082E1,1.4949366E1,1.6821455E1,1.3611355E1,1.3380116E0,3.5211425E0,1.3300313E1,1.5926538E0,1.9284886E0],"tree_param":{"num_deleted":"0","num_feature":"4","num_nodes":"9","size_leaf_vector":"0"}},{"base_weights":[-6.995918E-2,5.5464584E-1,-5.164963E-1],"categories":[],"categories_nodes":[],"categories_segments":[],"categories_sizes":[],"default_left":[1,0,0],"id":66,"left_children":[1,-1,-1],"loss_changes":[7.352405E0,0E0,0E0],"parents":[2147483647,0,0],"right_children":[2,-1,-1],"split_conditions":[2.35E0,5.5464584E-2,-5.164963E-2],"split_indices":[2,0,0],"split_type":[0,0,0],"sum_hessian":[2.4334158E1,1.0043481E1,1.4290676E1],"tree_param":{"num_deleted":"0","num_feature":"4","num_nodes":"3","size_leaf_vector":"0"}},{"base_weights":[1.3865589E-2,1.8351334E-1,-4.7696587E-1,-4.6459556E-1,4.3463707E-1,5.254197E-1,-3.8940232E-2,5.589987E-1,1.515963E-1,-3.3332255E-1,2.1916439E-1],"categories":[],"categories_nodes":[],"categories_segments":[],"categories_sizes":[],"default_left":[1,1,0,0,1,1,1,0,0,0,0],"id":67,"left_children":[1,3,-1,-1,5,7,9,-1,-1,-1,-1],"loss_changes":[2.4262657E0,3.7165751E0,0E0,0E0,7.1181035E-1,8.550811E-2,3.4033465E-1,0E0,0E0,0E0,0E0],"parents":[2147483647,0,0,1,1,4,4,5,5,6,6],"right_children":[2,4,-1,-1,6,8,10,-1,-1,-1,-1],"split_conditions":[1.75E0,2.35E0,-4.7696587E-2,-4.6459556E-2,4.95E0,1.55E0,1.55E0,5.589987E-2,1.5159629E-2,-3.3332255E-2,2.191644E-2],"split_indices":[3,2,0,0,2,3,3,0,0,0,0],"split_type":[0,0,0,0,0,0,0,0,0,0,0],"sum_hessian":[2.70867E1,2.0594627E1,6.492074E0,5.513954E0,1.5080673E1,1.25629425E1,2.5177305E0,1.1072951E1,1.4899915E0,1.0400606E0,1.4776698E0],"tree_param":{"num_deleted":"0","num_feature":"4","num_nodes":"11","size_leaf_vector":"0"}},{"base_weights":[4.804833E-2,-4.5617506E-1,4.802401E-1,-5.054072E-1,3.493343E-3,1.3628437E-1,5.623122E-1,2.6878577E-1,-8.468388E-2],"categories":[],"categories_nodes":[],"categories_segments":[],"categories_sizes":[],"default_left":[1,1,1,0,0,1,0,0,0],"id":68,"left_children":[1,3,5,-1,-1,7,-1,-1,-1],"loss_changes":[6.491255E0,3.1399345E-1,3.746109E-1,0E0,0E0,1.5156834E-1,0E0,0E0,0E0],"parents":[2147483647,0,0,1,1,2,2,5,5],"right_children":[2,4,6,-1,-1,8,-1,-1,-1],"split_conditions":[4.75E0,1.55E0,1.75E0,-5.0540723E-2,3.493343E-4,1.55E0,5.623122E-2,2.6878579E-2,-8.468389E-3],"split_indices":[2,3,3,0,0,3,0,0,0],"split_type":[0,0,0,0,0,0,0,0,0],"sum_hessian":[2.7781878E1,1.2796798E1,1.4985079E1,1.146893E1,1.3278677E0,3.3993387E0,1.158574E1,1.9897844E0,1.4095545E0],"tree_param":{"num_deleted":"0","num_feature":"4","num_nodes":"9","size_leaf_vector":"0"}},{"base_weights":[-7.382448E-2,5.974814E-1,-5.377241E-1],"categories":[],"categories_nodes":[],"categories_segments":[],"categories_sizes":[],"default_left":[1,0,0],"id":69,"left_children":[1,-1,-1],"loss_changes":[9.8360405E0,0E0,0E0],"parents":[2147483647,0,0],"right_children":[2,-1,-1],"split_conditions":[2.35E0,5.9748143E-2,-5.377241E-2],"split_indices":[2,0,0],"split_type":[0,0,0],"sum_hessian":[2.9552967E1,1.1959092E1,1.7593874E1],"tree_param":{"num_deleted":"0","num_feature":"4","num_nodes":"3","size_leaf_vector":"0"}},{"base_weights":[3.3148997E-2,-5.048152E-1,2.1069452E-1,5.298639E-1,-4.3585837E-1,6.3319105E-1,-1.7328396E-1],"categories":[],"categories_nodes":[],"categories_segments":[],"categories_sizes":[],"default_left":[1,0,1,1,0,0,0],"id":70,"left_children":[1,-1,3,5,-1,-1,-1],"loss_changes":[3.262932E0,0E0,5.504155E0,1.3854885E0,0E0,0E0,0E0],"parents":[2147483647,0,0,2,2,3,3],"right_children":[2,-1,4,6,-1,-1,-1],"split_conditions":[2.35E0,-5.0481524E-2,1.6500001E0,4.95E0,-4.3585837E-2,6.331911E-2,-1.7328396E-2],"split_indices":[2,0,3,2,0,0,0],"split_type":[0,0,0,0,0,0,0],"sum_hessian":[3.204855E1,7.4950857E0,2.4553463E1,1.6559422E1,7.9940424E0,1.452454E1,2.034881E0],"tree_param":{"num_deleted":"0","num_feature":"4","num_nodes":"7","size_leaf_vector":"0"}},{"base_weights":[3.730044E-2,-4.7163588E-1,4.9090523E-1,-5.165254E-1,-5.119365E-3,1.2739882E-1,5.7717484E-1,-8.500528E-2,2.7401888E-1],"categories":[],"categories_nodes":[],"categories_segments":[],"categories_sizes":[],"default_left":[1,1,1,0,0,1,0,0,0],"id":71,"left_children":[1,3,5,-1,-1,7,-1,-1,-1],"loss_changes":[7.4110684E0,3.1495667E-1,4.575019E-1,0E0,0E0,1.6440779E-1,0E0,0E0,0E0],"parents":[2147483647,0,0,1,1,2,2,5,5],"right_children":[2,4,6,-1,-1,8,-1,-1,-1],"split_conditions":[4.75E0,1.55E0,1.75E0,-5.165254E-2,-5.1193655E-4,5.05E0,5.7717483E-2,-8.5005285E-3,2.7401889E-2],"split_indices":[2,3,3,0,0,2,0,0,0],"split_type":[0,0,0,0,0,0,0,0,0],"sum_hessian":[3.0099653E1,1.41659565E1,1.5933696E1,1.2824729E1,1.3412279E0,3.5312293E0,1.2402467E1,1.6137183E0,1.917511E0],"tree_param":{"num_deleted":"0","num_feature":"4","num_nodes":"9","size_leaf_vector":"0"}},{"base_weights":[-6.9318496E-2,5.427375E-1,-5.104369E-1],"categories":[],"categories_nodes":[],"categories_segments":[],"categories_sizes":[],"default_left":[1,0,0],"id":72,"left_children":[1,-1,-1],"loss_changes":[6.7031035E0,0E0,0E0],"parents":[2147483647,0,0],"right_children":[2,-1,-1],"split_conditions":[2.35E0,5.427375E-2,-5.104369E-2],"split_indices":[2,0,0],"split_type":[0,0,0],"sum_hessian":[2.2801218E1,9.453721E0,1.3347497E1],"tree_param":{"num_deleted":"0","num_feature":"4","num_nodes":"3","size_leaf_vector":"0"}},{"base_weights":[1.5195329E-2,1.7670853E-1,-4.6774137E-1,-4.5977685E-1,4.236392E-1,5.150611E-1,-3.7736192E-2,5.499137E-1,1.4643925E-1,-3.2807308E-1,2.1431991E-1],"categories":[],"categories_nodes":[],"categories_segments":[],"categories_sizes":[],"default_left":[1,1,0,0,1,1,1,0,0,0,0],"id":73,"left_children":[1,3,-1,-1,5,7,9,-1,-1,-1,-1],"loss_changes":[2.1739743E0,3.4666681E0,0E0,0E0,6.7403793E-1,8.675742E-2,3.263243E-1,0E0,0E0,0E0,0E0],"parents":[2147483647,0,0,1,1,4,4,5,5,6,6],"right_children":[2,4,-1,-1,6,8,10,-1,-1,-1,-1],"split_conditions":[1.75E0,2.35E0,-4.6774138E-2,-4.5977686E-2,4.95E0,1.55E0,1.55E0,5.4991372E-2,1.4643925E-2,-3.280731E-2,2.1431992E-2],"split_indices":[3,2,0,0,2,3,3,0,0,0,0],"split_type":[0,0,0,0,0,0,0,0,0,0,0],"sum_hessian":[2.5811575E1,1.9817808E1,5.9937663E0,5.298498E0,1.451931E1,1.2020983E1,2.4983273E0,1.0533269E1,1.4877142E0,1.0208496E0,1.4774778E0],"tree_param":{"num_deleted":"0","num_feature":"4","num_nodes":"11","size_leaf_vector":"0"}},{"base_weights":[4.617514E-2,-4.4504684E-1,4.607363E-1,-4.9707678E-1,2.8676356E-3,1.2547794E-1,5.4701847E-1,2.5324467E-1,-8.45119E-2],"categories":[],"categories_nodes":[],"categories_segments":[],"categories_sizes":[],"default_left":[1,1,1,0,0,1,0,0,0],"id":74,"left_children":[1,3,5,-1,-1,7,-1,-1,-1],"loss_changes":[5.6845145E0,3.0028176E-1,3.6768436E-1,0E0,0E0,1.3905156E-1,0E0,0E0,0E0],"parents":[2147483647,0,0,1,1,2,2,5,5],"right_children":[2,4,6,-1,-1,8,-1,-1,-1],"split_conditions":[4.75E0,1.55E0,1.75E0,-4.9707677E-2,2.8676356E-4,1.55E0,5.4701846E-2,2.5324468E-2,-8.45119E-3],"split_indices":[2,3,3,0,0,3,0,0,0],"split_type":[0,0,0,0,0,0,0,0,0],"sum_hessian":[2.5907404E1,1.182371E1,1.4083693E1,1.04948635E1,1.3288465E0,3.3850405E0,1.0698652E1,1.9764805E0,1.40856E0],"tree_param":{"num_deleted":"0","num_feature":"4","num_nodes":"9","size_leaf_vector":"0"}},{"base_weights":[-6.889357E-2,5.3030205E-1,-5.0399446E-1],"categories":[],"categories_nodes":[],"categories_segments":[],"categories_sizes":[],"default_left":[1,0,0],"id":75,"left_children":[1,-1,-1],"loss_changes":[6.050976E0,0E0,0E0],"parents":[2147483647,0,0],"right_children":[2,-1,-1],"split_conditions":[2.35E0,5.3030204E-2,-5.039945E-2],"split_indices":[2,0,0],"split_type":[0,0,0],"sum_hessian":[2.1184397E1,8.819665E0,1.2364732E1],"tree_param":{"num_deleted":"0","num_feature":"4","num_nodes":"3","size_leaf_vector":"0"}},{"base_weights":[1.4421294E-2,1.8722335E-1,-4.1723254E-1,-4.5067114E-1,4.4663906E-1,5.686826E-1,-1.8532577E-1],"categories":[],"categories_nodes":[],"categories_segments":[],"categories_sizes":[],"default_left":[1,1,0,0,1,0,0],"id":76,"left_children":[1,3,-1,-1,5,-1,-1],"loss_changes":[1.9608761E0,3.2983294E0,0E0,0E0,1.1702905E0,0E0,0E0],"parents":[2147483647,0,0,1,1,4,4],"right_children":[2,4,-1,-1,6,-1,-1],"split_conditions":[1.6500001E0,2.35E0,-4.1723255E-2,-4.5067113E-2,4.95E0,5.6868263E-2,-1.8532578E-2],"split_indices":[3,2,0,0,2,0,0],"split_type":[0,0,0,0,0,0,0],"sum_hessian":[2.4241232E1,1.771552E1,6.52571E0,4.90848E0,1.2807041E1,1.0818026E1,1.9890158E0],"tree_param":{"num_deleted":"0","num_feature":"4","num_nodes":"7","size_leaf_vector":"0"}},{"base_weights":[4.597571E-2,-4.349633E-1,4.4626442E-1,-4.8980668E-1,3.592015E-3,1.2043263E-1,5.348237E-1,-7.641407E-2,2.5189778E-1],"categories":[],"categories_nodes":[],"categories_segments":[],"categories_sizes":[],"default_left":[1,1,1,0,0,1,0,0,0],"id":77,"left_children":[1,3,5,-1,-1,7,-1,-1,-1],"loss_changes":[5.069615E0,2.9062724E-1,3.486607E-1,0E0,0E0,1.3181776E-1,0E0,0E0,0E0],"parents":[2147483647,0,0,1,1,2,2,5,5],"right_children":[2,4,6,-1,-1,8,-1,-1,-1],"split_conditions":[4.75E0,1.55E0,1.75E0,-4.898067E-2,3.592015E-4,5.05E0,5.3482372E-2,-7.641407E-3,2.5189778E-2],"split_indices":[2,3,3,0,0,2,0,0,0],"split_type":[0,0,0,0,0,0,0,0,0],"sum_hessian":[2.4325403E1,1.1010219E1,1.3315186E1,9.682511E0,1.3277075E0,3.3499162E0,9.965269E0,1.5090784E0,1.840838E0],"tree_param":{"num_deleted":"0","num_feature":"4","num_nodes":"9","size_leaf_vector":"0"}},{"base_weights":[-6.843776E-2,5.1870584E-1,-4.9779764E-1],"categories":[],"categories_nodes":[],"categories_segments":[],"categories_sizes":[],"default_left":[1,0,0],"id":78,"left_children":[1,-1,-1],"loss_changes":[5.46762E0,0E0,0E0],"parents":[2147483647,0,0],"right_children":[2,-1,-1],"split_conditions":[2.35E0,5.1870584E-2,-4.9779765E-2],"split_indices":[2,0,0],"split_type":[0,0,0],"sum_hessian":[1.9664396E1,8.218128E0,1.1446267E1],"tree_param":{"num_deleted":"0","num_feature":"4","num_nodes":"3","size_leaf_vector":"0"}},{"base_weights":[1.3465461E-2,1.6602051E-1,-4.5068812E-1,-4.4167313E-1,3.9377093E-1,4.8664907E-1,-3.1544853E-2,5.263389E-1,1.2776072E-1],"categories":[],"categories_nodes":[],"categories_segments":[],"categories_sizes":[],"default_left":[1,1,0,0,1,1,0,0,0],"id":79,"left_children":[1,3,-1,-1,5,7,-1,-1,-1],"loss_changes":[1.7575423E0,2.7504818E0,0E0,0E0,5.7115555E-1,9.811711E-2,0E0,0E0,0E0],"parents":[2147483647,0,0,1,1,4,4,5,5],"right_children":[2,4,-1,-1,6,8,-1,-1,-1],"split_conditions":[1.75E0,2.35E0,-4.506881E-2,-4.4167314E-2,4.95E0,1.55E0,-3.1544853E-3,5.263389E-2,1.2776072E-2],"split_indices":[3,2,0,0,2,3,0,0,0],"split_type":[0,0,0,0,0,0,0,0,0],"sum_hessian":[2.2764204E1,1.7616455E1,5.147749E0,4.5463634E0,1.3070091E1,1.0609122E1,2.4609685E0,9.132563E0,1.4765605E0],"tree_param":{"num_deleted":"0","num_feature":"4","num_nodes":"9","size_leaf_vector":"0"}},{"base_weights":[4.5890708E-2,-4.2443204E-1,4.3113315E-1,-4.825853E-1,6.7040534E-3,1.1088222E-1,5.2371013E-1,2.417565E-1,-9.25031E-2],"categories":[],"categories_nodes":[],"categories_segments":[],"categories_sizes":[],"default_left":[1,1,1,0,0,1,0,0,0],"id":80,"left_children":[1,3,5,-1,-1,7,-1,-1,-1],"loss_changes":[4.5032687E0,2.8505492E-1,3.4525132E-1,0E0,0E0,1.373323E-1,0E0,0E0,0E0],"parents":[2147483647,0,0,1,1,2,2,5,5],"right_children":[2,4,6,-1,-1,8,-1,-1,-1],"split_conditions":[4.75E0,1.55E0,1.75E0,-4.825853E-2,6.7040534E-4,1.55E0,5.2371014E-2,2.417565E-2,-9.25031E-3],"split_indices":[2,3,3,0,0,3,0,0,0],"split_type":[0,0,0,0,0,0,0,0,0],"sum_hessian":[2.2844156E1,1.0240423E1,1.2603734E1,8.918172E0,1.322251E0,3.319239E0,9.284495E0,1.9048468E0,1.4143921E0],"tree_param":{"num_deleted":"0","num_feature":"4","num_nodes":"9","size_leaf_vector":"0"}},{"base_weights":[-7.273594E-2,5.5671763E-1,-5.181291E-1],"categories":[],"categories_nodes":[],"categories_segments":[],"categories_sizes":[],"default_left":[1,0,0],"id":81,"left_children":[1,-1,-1],"loss_changes":[7.5019274E0,0E0,0E0],"parents":[2147483647,0,0],"right_children":[2,-1,-1],"split_conditions":[2.35E0,5.5671763E-2,-5.1812913E-2],"split_indices":[2,0,0],"split_type":[0,0,0],"sum_hessian":[2.4729855E1,1.0143943E1,1.4585913E1],"tree_param":{"num_deleted":"0","num_feature":"4","num_nodes":"3","size_leaf_vector":"0"}},{"base_weights":[2.7060485E-2,1.9041719E-1,-4.760128E-1,-4.7397304E-1,4.5399913E-1,5.4178274E-1,-2.8786696E-2,5.731831E-1,1.6370007E-1,-3.3656582E-1,2.3777016E-1],"categories":[],"categories_nodes":[],"categories_segments":[],"categories_sizes":[],"default_left":[1,1,0,0,1,1,1,0,0,0,0],"id":82,"left_children":[1,3,-1,-1,5,7,9,-1,-1,-1,-1],"loss_changes":[2.4890025E0,4.198266E0,0E0,0E0,7.273817E-1,7.548189E-2,3.699167E-1,0E0,0E0,0E0,0E0],"parents":[2147483647,0,0,1,1,4,4,5,5,6,6],"right_children":[2,4,-1,-1,6,8,10,-1,-1,-1,-1],"split_conditions":[1.75E0,2.35E0,-4.760128E-2,-4.7397304E-2,4.95E0,1.55E0,1.55E0,5.731831E-2,1.6370008E-2,-3.3656582E-2,2.3777016E-2],"split_indices":[3,2,0,0,2,3,3,0,0,0,0],"split_type":[0,0,0,0,0,0,0,0,0,0,0],"sum_hessian":[2.8184107E1,2.174471E1,6.439396E0,5.9496636E0,1.5795048E1,1.3261538E1,2.5335097E0,1.1768148E1,1.4933892E0,1.0539395E0,1.4795702E0],"tree_param":{"num_deleted":"0","num_feature":"4","num_nodes":"11","size_leaf_vector":"0"}},{"base_weights":[3.8084082E-2,-4.557693E-1,4.637707E-1,-5.0412023E-1,-7.472766E-3,1.0871662E-1,5.56411E-1,-1.0505027E-1,2.6503947E-1],"categories":[],"categories_nodes":[],"categories_segments":[],"categories_sizes":[],"default_left":[1,1,1,0,0,1,0,0,0],"id":83,"left_children":[1,3,5,-1,-1,7,-1,-1,-1],"loss_changes":[6.1827025E0,2.9218316E-1,4.5758247E-1,0E0,0E0,1.7828652E-1,0E0,0E0,0E0],"parents":[2147483647,0,0,1,1,2,2,5,5],"right_children":[2,4,6,-1,-1,8,-1,-1,-1],"split_conditions":[4.75E0,1.55E0,1.75E0,-5.0412025E-2,-7.4727664E-4,5.05E0,5.5641104E-2,-1.0505027E-2,2.6503948E-2],"split_indices":[2,3,3,0,0,2,0,0,0],"split_type":[0,0,0,0,0,0,0,0,0],"sum_hessian":[2.7404232E1,1.2653645E1,1.4750588E1,1.1309353E1,1.3442914E0,3.5020678E0,1.124852E1,1.6177855E0,1.8842822E0],"tree_param":{"num_deleted":"0","num_feature":"4","num_nodes":"9","size_leaf_vector":"0"}},{"base_weights":[-6.8172984E-2,5.0670886E-1,-4.911099E-1],"categories":[],"categories_nodes":[],"categories_segments":[],"categories_sizes":[],"default_left":[1,0,0],"id":84,"left_children":[1,-1,-1],"loss_changes":[4.895903E0,0E0,0E0],"parents":[2147483647,0,0],"right_children":[2,-1,-1],"split_conditions":[2.35E0,5.067089E-2,-4.911099E-2],"split_indices":[2,0,0],"split_type":[0,0,0],"sum_hessian":[1.8112762E1,7.5933475E0,1.0519416E1],"tree_param":{"num_deleted":"0","num_feature":"4","num_nodes":"3","size_leaf_vector":"0"}},{"base_weights":[1.2808782E-2,1.7785889E-1,-3.9687306E-1,-4.3183163E-1,4.1843522E-1,5.4797584E-1,-1.7782071E-1],"categories":[],"categories_nodes":[],"categories_segments":[],"categories_sizes":[],"default_left":[1,1,0,0,1,0,0],"id":85,"left_children":[1,3,-1,-1,5,-1,-1],"loss_changes":[1.5759999E0,2.609731E0,0E0,0E0,1.0538712E0,0E0,0E0],"parents":[2147483647,0,0,1,1,4,4],"right_children":[2,4,-1,-1,6,-1,-1],"split_conditions":[1.6500001E0,2.35E0,-3.9687306E-2,-4.3183163E-2,4.95E0,5.4797586E-2,-1.7782072E-2],"split_indices":[3,2,0,0,2,0,0],"split_type":[0,0,0,0,0,0,0],"sum_hessian":[2.1263475E1,1.5560441E1,5.703034E0,4.1777687E0,1.1382672E1,9.417606E0,1.9650661E0],"tree_param":{"num_deleted":"0","num_feature":"4","num_nodes":"7","size_leaf_vector":"0"}},{"base_weights":[4.558895E-2,-3.2854956E-1,5.0365543E-1,-5.031961E-1,3.3088115E-1],"categories":[],"categories_nodes":[],"categories_segments":[],"categories_sizes":[],"default_left":[1,1,0,0,0],"id":86,"left_children":[1,3,-1,-1,-1],"loss_changes":[3.991653E0,1.6514432E0,0E0,0E0,0E0],"parents":[2147483647,0,0,1,1],"right_children":[2,4,-1,-1,-1],"split_conditions":[1.6500001E0,4.95E0,5.0365545E-2,-5.0319612E-2,3.3088114E-2],"split_indices":[3,2,0,0,0],"split_type":[0,0,0,0,0],"sum_hessian":[2.1325651E1,1.1893805E1,9.431848E0,9.590687E0,2.303117E0],"tree_param":{"num_deleted":"0","num_feature":"4","num_nodes":"5","size_leaf_vector":"0"}},{"base_weights":[-6.787445E-2,4.9629092E-1,-4.8504072E-1],"categories":[],"categories_nodes":[],"categories_segments":[],"categories_sizes":[],"default_left":[1,0,0],"id":87,"left_children":[1,-1,-1],"loss_changes":[4.427028E0,0E0,0E0],"parents":[2147483647,0,0],"right_children":[2,-1,-1],"split_conditions":[2.35E0,4.9629092E-2,-4.8504073E-2],"split_indices":[2,0,0],"split_type":[0,0,0],"sum_hessian":[1.6787521E1,7.055783E0,9.731738E0],"tree_param":{"num_deleted":"0","num_feature":"4","num_nodes":"3","size_leaf_vector":"0"}},{"base_weights":[1.17249815E-2,1.5574268E-1,-4.3312433E-1,-4.2296982E-1,3.655578E-1,4.5803827E-1,-1.7629491E-2,5.040037E-1,1.0674254E-1],"categories":[],"categories_nodes":[],"categories_segments":[],"categories_sizes":[],"default_left":[1,1,0,0,1,1,0,0,0],"id":88,"left_children":[1,3,-1,-1,5,7,-1,-1,-1],"loss_changes":[1.409669E0,2.1656396E0,0E0,0E0,4.5783246E-1,1.118927E-1,0E0,0E0,0E0],"parents":[2147483647,0,0,1,1,4,4,5,5],"right_children":[2,4,-1,-1,6,8,-1,-1,-1],"split_conditions":[1.75E0,2.35E0,-4.3312434E-2,-4.2296983E-2,4.95E0,1.55E0,-1.7629492E-3,5.0400373E-2,1.0674254E-2],"split_indices":[3,2,0,0,2,3,0,0,0],"split_type":[0,0,0,0,0,0,0,0,0],"sum_hessian":[1.9950418E1,1.5562149E1,4.388269E0,3.8705294E0,1.169162E1,9.261147E0,2.430473E0,7.8051763E0,1.4559706E0],"tree_param":{"num_deleted":"0","num_feature":"4","num_nodes":"9","size_leaf_vector":"0"}},{"base_weights":[4.578292E-2,-3.180633E-1,4.888319E-1,-4.9554253E-1,3.122717E-1],"categories":[],"categories_nodes":[],"categories_segments":[],"categories_sizes":[],"default_left":[1,1,0,0,0],"id":89,"left_children":[1,3,-1,-1,-1],"loss_changes":[3.5415301E0,1.5127782E0,0E0,0E0,0E0],"parents":[2147483647,0,0,1,1],"right_children":[2,4,-1,-1,-1],"split_conditions":[1.6500001E0,4.95E0,4.8883192E-2,-4.9554255E-2,3.1227171E-2],"split_indices":[3,2,0,0,0],"split_type":[0,0,0,0,0],"sum_hessian":[2.0005056E1,1.1139248E1,8.8658085E0,8.858782E0,2.2804658E0],"tree_param":{"num_deleted":"0","num_feature":"4","num_nodes":"5","size_leaf_vector":"0"}},{"base_weights":[-6.7824036E-2,4.863474E-1,-4.7907776E-1],"categories":[],"categories_nodes":[],"categories_segments":[],"categories_sizes":[],"default_left":[1,0,0],"id":90,"left_children":[1,-1,-1],"loss_changes":[4.008478E0,0E0,0E0],"parents":[2147483647,0,0],"right_children":[2,-1,-1],"split_conditions":[2.35E0,4.863474E-2,-4.7907777E-2],"split_indices":[2,0,0],"split_type":[0,0,0],"sum_hessian":[1.5566021E1,6.5530615E0,9.0129595E0],"tree_param":{"num_deleted":"0","num_feature":"4","num_nodes":"3","size_leaf_vector":"0"}},{"base_weights":[1.1051519E-2,1.510929E-1,-4.2468697E-1,-4.1412604E-1,3.5300425E-1,4.447267E-1,-9.850046E-3,4.9385598E-1,9.7334884E-2],"categories":[],"categories_nodes":[],"categories_segments":[],"categories_sizes":[],"default_left":[1,1,0,0,1,1,0,0,0],"id":91,"left_children":[1,3,-1,-1,5,7,-1,-1,-1],"loss_changes":[1.2688785E0,1.9354556E0,0E0,0E0,4.0680933E-1,1.1702776E-1,0E0,0E0,0E0],"parents":[2147483647,0,0,1,1,4,4,5,5],"right_children":[2,4,-1,-1,6,8,-1,-1,-1],"split_conditions":[1.75E0,2.35E0,-4.2468697E-2,-4.1412603E-2,4.95E0,1.55E0,-9.850046E-4,4.93856E-2,9.733489E-3],"split_indices":[3,2,0,0,2,3,0,0,0],"split_type":[0,0,0,0,0,0,0,0,0],"sum_hessian":[1.8742434E1,1.4678258E1,4.064176E0,3.5867336E0,1.1091524E1,8.673419E0,2.418105E0,7.2294025E0,1.4440169E0],"tree_param":{"num_deleted":"0","num_feature":"4","num_nodes":"9","size_leaf_vector":"0"}},{"base_weights":[4.57735E-2,-3.078558E-1,4.7616133E-1,-4.8905158E-1,2.982454E-1],"categories":[],"categories_nodes":[],"categories_segments":[],"categories_sizes":[],"default_left":[1,1,0,0,0],"id":92,"left_children":[1,3,-1,-1,-1],"loss_changes":[3.1570196E0,1.4050281E0,0E0,0E0,0E0],"parents":[2147483647,0,0,1,1],"right_children":[2,4,-1,-1,-1],"split_conditions":[1.6500001E0,4.95E0,4.7616135E-2,-4.890516E-2,2.982454E-2],"split_indices":[3,2,0,0,0],"split_type":[0,0,0,0,0],"sum_hessian":[1.8779732E1,1.046546E1,8.314272E0,8.205515E0,2.2599442E0],"tree_param":{"num_deleted":"0","num_feature":"4","num_nodes":"5","size_leaf_vector":"0"}},{"base_weights":[-4.9734432E-2,5.413684E-1,-5.046498E-1],"categories":[],"categories_nodes":[],"categories_segments":[],"categories_sizes":[],"default_left":[1,0,0],"id":93,"left_children":[1,-1,-1],"loss_changes":[6.395812E0,0E0,0E0],"parents":[2147483647,0,0],"right_children":[2,-1,-1],"split_conditions":[2.35E0,5.4136842E-2,-5.0464984E-2],"split_indices":[2,0,0],"split_type":[0,0,0],"sum_hessian":[2.1768948E1,9.384709E0,1.2384239E1],"tree_param":{"num_deleted":"0","num_feature":"4","num_nodes":"3","size_leaf_vector":"0"}},{"base_weights":[4.6600853E-3,-4.6053803E-1,1.6506366E-1,4.3028465E-1,-3.734441E-1,5.490294E-1,-1.5317318E-1,-1.6008355E-1,-4.2147163E-1],"categories":[],"categories_nodes":[],"categories_segments":[],"categories_sizes":[],"default_left":[1,0,1,1,1,0,0,0,0],"id":94,"left_children":[1,-1,3,5,7,-1,-1,-1,-1],"loss_changes":[1.842062E0,0E0,2.779388E0,9.674113E-1,1.4841557E-5,0E0,0E0,0E0,0E0],"parents":[2147483647,0,0,2,2,3,3,4,4],"right_children":[2,-1,4,6,8,-1,-1,-1,-1],"split_conditions":[2.35E0,-4.6053804E-2,1.6500001E0,4.95E0,5.05E0,5.490294E-2,-1.5317318E-2,-1.6008355E-2,-4.2147163E-2],"split_indices":[2,0,3,2,2,0,0,0,0],"split_type":[0,0,0,0,0,0,0,0,0],"sum_hessian":[2.2667341E1,5.3321276E0,1.7335215E1,1.174945E1,5.5857644E0,9.811608E0,1.937841E0,1.8225064E0,3.7632582E0],"tree_param":{"num_deleted":"0","num_feature":"4","num_nodes":"9","size_leaf_vector":"0"}},{"base_weights":[4.322981E-2,-4.2264795E-1,4.280877E-1,-4.836104E-1,2.9863846E-2,1.07867606E-1,5.2148914E-1,2.6674774E-1,-1.20803945E-1],"categories":[],"categories_nodes":[],"categories_segments":[],"categories_sizes":[],"default_left":[1,1,1,0,0,1,0,0,0],"id":95,"left_children":[1,3,5,-1,-1,7,-1,-1,-1],"loss_changes":[4.4201565E0,3.2338548E-1,3.458588E-1,0E0,0E0,1.8833035E-1,0E0,0E0,0E0],"parents":[2147483647,0,0,1,1,2,2,5,5],"right_children":[2,4,6,-1,-1,8,-1,-1,-1],"split_conditions":[4.75E0,1.55E0,1.75E0,-4.836104E-2,2.9863846E-3,1.55E0,5.2148916E-2,2.6674775E-2,-1.2080395E-2],"split_indices":[2,3,3,0,0,3,0,0,0],"split_type":[0,0,0,0,0,0,0,0,0],"sum_hessian":[2.2643633E1,1.01991625E1,1.2444471E1,8.927697E0,1.271465E0,3.2967339E0,9.1477375E0,1.8469616E0,1.4497724E0],"tree_param":{"num_deleted":"0","num_feature":"4","num_nodes":"9","size_leaf_vector":"0"}},{"base_weights":[-5.676625E-2,5.2375036E-1,-4.970165E-1],"categories":[],"categories_nodes":[],"categories_segments":[],"categories_sizes":[],"default_left":[1,0,0],"id":96,"left_children":[1,-1,-1],"loss_changes":[5.589703E0,0E0,0E0],"parents":[2147483647,0,0],"right_children":[2,-1,-1],"split_conditions":[2.35E0,5.2375037E-2,-4.970165E-2],"split_indices":[2,0,0],"split_type":[0,0,0],"sum_hessian":[1.9852749E1,8.480562E0,1.1372186E1],"tree_param":{"num_deleted":"0","num_feature":"4","num_nodes":"3","size_leaf_vector":"0"}},{"base_weights":[1.741137E-3,1.6020899E-1,-4.5578605E-1,-4.4187504E-1,3.895432E-1,4.8075756E-1,-1.7415004E-2,5.219944E-1,1.19324684E-1,-3.2962638E-1,2.4516167E-1],"categories":[],"categories_nodes":[],"categories_segments":[],"categories_sizes":[],"default_left":[1,1,0,0,1,1,1,0,0,0,0],"id":97,"left_children":[1,3,-1,-1,5,7,9,-1,-1,-1,-1],"loss_changes":[1.8005748E0,2.7179475E0,0E0,0E0,5.237243E-1,1.07268095E-1,3.683165E-1,0E0,0E0,0E0,0E0],"parents":[2147483647,0,0,1,1,4,4,5,5,6,6],"right_children":[2,4,-1,-1,6,8,10,-1,-1,-1,-1],"split_conditions":[1.75E0,2.35E0,-4.5578606E-2,-4.4187505E-2,4.95E0,1.55E0,1.55E0,5.2199442E-2,1.1932469E-2,-3.296264E-2,2.4516167E-2],"split_indices":[3,2,0,0,2,3,3,0,0,0,0],"split_type":[0,0,0,0,0,0,0,0,0,0,0],"sum_hessian":[2.282723E1,1.7437473E1,5.3897576E0,4.5542283E0,1.28832445E1,1.0376209E1,2.507035E0,8.914854E0,1.461355E0,1.0286213E0,1.4784138E0],"tree_param":{"num_deleted":"0","num_feature":"4","num_nodes":"11","size_leaf_vector":"0"}},{"base_weights":[4.6486232E-2,-4.2860174E-1,4.3569058E-1,-4.8597127E-1,1.3124349E-2,1.0297789E-1,5.299786E-1,2.6057693E-1,-1.2416808E-1],"categories":[],"categories_nodes":[],"categories_segments":[],"categories_sizes":[],"default_left":[1,1,1,0,0,1,0,0,0],"id":98,"left_children":[1,3,5,-1,-1,7,-1,-1,-1],"loss_changes":[4.7302113E0,2.9955888E-1,3.8469744E-1,0E0,0E0,1.874733E-1,0E0,0E0,0E0],"parents":[2147483647,0,0,1,1,2,2,5,5],"right_children":[2,4,6,-1,-1,8,-1,-1,-1],"split_conditions":[4.75E0,1.55E0,1.75E0,-4.8597127E-2,1.3124349E-3,1.55E0,5.2997857E-2,2.6057694E-2,-1.2416809E-2],"split_indices":[2,3,3,0,0,3,0,0,0],"split_type":[0,0,0,0,0,0,0,0,0],"sum_hessian":[2.3571758E1,1.0569148E1,1.300261E1,9.265606E0,1.3035421E0,3.333147E0,9.669463E0,1.8809339E0,1.452213E0],"tree_param":{"num_deleted":"0","num_feature":"4","num_nodes":"9","size_leaf_vector":"0"}},{"base_weights":[-6.7756444E-2,4.7558457E-1,-4.7240886E-1],"categories":[],"categories_nodes":[],"categories_segments":[],"categories_sizes":[],"default_left":[1,0,0],"id":99,"left_children":[1,-1,-1],"loss_changes":[3.5872529E0,0E0,0E0],"parents":[2147483647,0,0],"right_children":[2,-1,-1],"split_conditions":[2.35E0,4.7558457E-2,-4.7240887E-2],"split_indices":[2,0,0],"split_type":[0,0,0],"sum_hessian":[1.4293903E1,6.026551E0,8.267353E0],"tree_param":{"num_deleted":"0","num_feature":"4","num_nodes":"3","size_leaf_vector":"0"}},{"base_weights":[1.0281126E-2,1.373686E-1,-4.4799384E-1,-4.0411657E-1,3.2048783E-1,4.7024417E-1,-2.2771735E-1,5.165181E-1,6.704425E-2],"categories":[],"categories_nodes":[],"categories_segments":[],"categories_sizes":[],"default_left":[1,1,0,0,1,1,0,0,0],"id":100,"left_children":[1,3,-1,-1,5,7,-1,-1,-1],"loss_changes":[1.1378177E0,1.6399565E0,0E0,0E0,1.0874081E0,1.464467E-1,0E0,0E0,0E0],"parents":[2147483647,0,0,1,1,4,4,5,5],"right_children":[2,4,-1,-1,6,8,-1,-1,-1],"split_conditions":[5.1499996E0,2.35E0,-4.4799384E-2,-4.041166E-2,1.6500001E0,4.95E0,-2.2771737E-2,5.1651813E-2,6.704425E-3],"split_indices":[2,2,0,0,3,2,0,0,0],"split_type":[0,0,0,0,0,0,0,0,0],"sum_hessian":[1.747972E1,1.4232932E1,3.2467866E0,3.2919016E0,1.09410305E1,8.705194E0,2.235836E0,7.5568695E0,1.1483251E0],"tree_param":{"num_deleted":"0","num_feature":"4","num_nodes":"9","size_leaf_vector":"0"}},{"base_weights":[4.5737643E-2,-2.9651678E-1,4.624607E-1,-4.819754E-1,2.8423122E-1],"categories":[],"categories_nodes":[],"categories_segments":[],"categories_sizes":[],"default_left":[1,1,0,0,0],"id":101,"left_children":[1,3,-1,-1,-1],"loss_changes":[2.7760818E0,1.296799E0,0E0,0E0,0E0],"parents":[2147483647,0,0,1,1],"right_children":[2,4,-1,-1,-1],"split_conditions":[1.6500001E0,4.95E0,4.624607E-2,-4.819754E-2,2.8423121E-2],"split_indices":[3,2,0,0,0],"split_type":[0,0,0,0,0],"sum_hessian":[1.7502708E1,9.768391E0,7.7343183E0,7.5328846E0,2.2355063E0],"tree_param":{"num_deleted":"0","num_feature":"4","num_nodes":"5","size_leaf_vector":"0"}},{"base_weights":[-6.555206E-2,4.8196477E-1,-4.7559598E-1],"categories":[],"categories_nodes":[],"categories_segments":[],"categories_sizes":[],"default_left":[1,0,0],"id":102,"left_children":[1,-1,-1],"loss_changes":[3.8150053E0,0E0,0E0],"parents":[2147483647,0,0],"right_children":[2,-1,-1],"split_conditions":[2.35E0,4.8196476E-2,-4.75596E-2],"split_indices":[2,0,0],"split_type":[0,0,0],"sum_hessian":[1.4971892E1,6.3361125E0,8.63578E0],"tree_param":{"num_deleted":"0","num_feature":"4","num_nodes":"3","size_leaf_vector":"0"}},{"base_weights":[1.6402373E-2,1.5270531E-1,-4.2124674E-1,-4.1656554E-1,3.5986328E-1,4.2585757E-1,-5.860945E-2],"categories":[],"categories_nodes":[],"categories_segments":[],"categories_sizes":[],"default_left":[1,1,0,0,1,0,0],"id":103,"left_children":[1,3,-1,-1,5,-1,-1],"loss_changes":[1.2381918E0,2.0059898E0,0E0,0E0,3.5846543E-1,0E0,0E0],"parents":[2147483647,0,0,1,1,4,4],"right_children":[2,4,-1,-1,6,-1,-1],"split_conditions":[1.75E0,2.35E0,-4.2124674E-2,-4.1656554E-2,5.05E0,4.2585757E-2,-5.8609447E-3],"split_indices":[3,2,0,0,2,0,0],"split_type":[0,0,0,0,0,0,0],"sum_hessian":[1.8678272E1,1.4738989E1,3.9392831E0,3.6627846E0,1.1076204E1,9.552156E0,1.5240479E0],"tree_param":{"num_deleted":"0","num_feature":"4","num_nodes":"7","size_leaf_vector":"0"}},{"base_weights":[3.8324162E-2,-3.0353197E-1,4.5713997E-1,-4.831561E-1,2.743259E-1],"categories":[],"categories_nodes":[],"categories_segments":[],"categories_sizes":[],"default_left":[1,1,0,0,0],"id":104,"left_children":[1,3,-1,-1,-1],"loss_changes":[2.844368E0,1.2748876E0,0E0,0E0,0E0],"parents":[2147483647,0,0,1,1],"right_children":[2,4,-1,-1,-1],"split_conditions":[1.6500001E0,4.95E0,4.5714E-2,-4.831561E-2,2.743259E-2],"split_indices":[3,2,0,0,0],"split_type":[0,0,0,0,0],"sum_hessian":[1.7897264E1,1.000555E1,7.8917146E0,7.757924E0,2.247626E0],"tree_param":{"num_deleted":"0","num_feature":"4","num_nodes":"5","size_leaf_vector":"0"}},{"base_weights":[-5.9969842E-2,5.143868E-1,-4.9306297E-1],"categories":[],"categories_nodes":[],"categories_segments":[],"categories_sizes":[],"default_left":[1,0,0],"id":105,"left_children":[1,-1,-1],"loss_changes":[5.174122E0,0E0,0E0],"parents":[2147483647,0,0],"right_children":[2,-1,-1],"split_conditions":[2.35E0,5.1438678E-2,-4.93063E-2],"split_indices":[2,0,0],"split_type":[0,0,0],"sum_hessian":[1.87809E1,7.993038E0,1.078786E1],"tree_param":{"num_deleted":"0","num_feature":"4","num_nodes":"3","size_leaf_vector":"0"}},{"base_weights":[1.3773343E-2,-4.4257745E-1,1.5380022E-1,4.2291203E-1,-3.780876E-1,5.4463273E-1,-1.561152E-1],"categories":[],"categories_nodes":[],"categories_segments":[],"categories_sizes":[],"default_left":[1,0,1,1,0,0,0],"id":106,"left_children":[1,-1,3,5,-1,-1,-1],"loss_changes":[1.5169778E0,0E0,2.7496047E0,9.650309E-1,0E0,0E0,0E0],"parents":[2147483647,0,0,2,2,3,3],"right_children":[2,-1,4,6,-1,-1,-1],"split_conditions":[2.35E0,-4.4257745E-2,1.6500001E0,4.95E0,-3.780876E-2,5.4463275E-2,-1.5611521E-2],"split_indices":[2,0,3,2,0,0,0],"split_type":[0,0,0,0,0,0,0],"sum_hessian":[2.1674149E1,4.5816817E0,1.7092466E1,1.1485962E1,5.6065054E0,9.53992E0,1.9460418E0],"tree_param":{"num_deleted":"0","num_feature":"4","num_nodes":"7","size_leaf_vector":"0"}},{"base_weights":[3.9541394E-2,-3.2794836E-1,4.9034366E-1,-4.9841824E-1,3.1139904E-1],"categories":[],"categories_nodes":[],"categories_segments":[],"categories_sizes":[],"default_left":[1,1,0,0,0],"id":107,"left_children":[1,3,-1,-1,-1],"loss_changes":[3.8224022E0,1.5476094E0,0E0,0E0,0E0],"parents":[2147483647,0,0,1,1],"right_children":[2,4,-1,-1,-1],"split_conditions":[1.6500001E0,4.95E0,4.903437E-2,-4.9841825E-2,3.1139905E-2],"split_indices":[3,2,0,0,0],"split_type":[0,0,0,0,0],"sum_hessian":[2.1102377E1,1.1775568E1,9.326809E0,9.470788E0,2.3047795E0],"tree_param":{"num_deleted":"0","num_feature":"4","num_nodes":"5","size_leaf_vector":"0"}},{"base_weights":[-6.741871E-2,4.6431488E-1,-4.6507803E-1],"categories":[],"categories_nodes":[],"categories_segments":[],"categories_sizes":[],"default_left":[1,0,0],"id":108,"left_children":[1,-1,-1],"loss_changes":[3.1814897E0,0E0,0E0],"parents":[2147483647,0,0],"right_children":[2,-1,-1],"split_conditions":[2.35E0,4.643149E-2,-4.65078E-2],"split_indices":[2,0,0],"split_type":[0,0,0],"sum_hessian":[1.3024892E1,5.5012407E0,7.523651E0],"tree_param":{"num_deleted":"0","num_feature":"4","num_nodes":"3","size_leaf_vector":"0"}},{"base_weights":[8.86525E-3,1.3401245E-1,-4.3744406E-1,-3.9329848E-1,3.1043032E-1,4.5709357E-1,-2.0975071E-1,5.0384665E-1,7.109488E-2],"categories":[],"categories_nodes":[],"categories_segments":[],"categories_sizes":[],"default_left":[1,1,0,0,1,1,0,0,0],"id":109,"left_children":[1,3,-1,-1,5,7,-1,-1,-1],"loss_changes":[1.0199453E0,1.4437754E0,0E0,0E0,9.50699E-1,1.2759006E-1,0E0,0E0,0E0],"parents":[2147483647,0,0,1,1,4,4,5,5],"right_children":[2,4,-1,-1,6,8,-1,-1,-1],"split_conditions":[5.1499996E0,2.35E0,-4.3744408E-2,-3.932985E-2,1.6500001E0,4.95E0,-2.0975072E-2,5.0384667E-2,7.109488E-3],"split_indices":[2,2,0,0,3,2,0,0,0],"split_type":[0,0,0,0,0,0,0,0,0],"sum_hessian":[1.6211231E1,1.3207515E1,3.0037165E0,3.0028062E0,1.0204709E1,8.05493E0,2.1497796E0,6.912379E0,1.1425505E0],"tree_param":{"num_deleted":"0","num_feature":"4","num_nodes":"9","size_leaf_vector":"0"}},{"base_weights":[4.604277E-2,-2.8419486E-1,4.4610393E-1,-4.7281894E-1,2.659532E-1],"categories":[],"categories_nodes":[],"categories_segments":[],"categories_sizes":[],"default_left":[1,1,0,0,0],"id":110,"left_children":[1,3,-1,-1,-1],"loss_changes":[2.402103E0,1.1681587E0,0E0,0E0,0E0],"parents":[2147483647,0,0,1,1],"right_children":[2,4,-1,-1,-1],"split_conditions":[1.6500001E0,4.95E0,4.4610392E-2,-4.7281895E-2,2.6595322E-2],"split_indices":[3,2,0,0,0],"split_type":[0,0,0,0,0],"sum_hessian":[1.6222254E1,9.045284E0,7.17697E0,6.8405056E0,2.204779E0],"tree_param":{"num_deleted":"0","num_feature":"4","num_nodes":"5","size_leaf_vector":"0"}},{"base_weights":[-6.76041E-2,4.827421E-1,-4.766955E-1],"categories":[],"categories_nodes":[],"categories_segments":[],"categories_sizes":[],"default_left":[1,0,0],"id":111,"left_children":[1,-1,-1],"loss_changes":[3.8616E0,0E0,0E0],"parents":[2147483647,0,0],"right_children":[2,-1,-1],"split_conditions":[2.35E0,4.827421E-2,-4.7669552E-2],"split_indices":[2,0,0],"split_type":[0,0,0],"sum_hessian":[1.5129734E1,6.3743525E0,8.755382E0],"tree_param":{"num_deleted":"0","num_feature":"4","num_nodes":"3","size_leaf_vector":"0"}},{"base_weights":[-4.960353E-3,1.376708E-1,-4.2280594E-1,-4.0765107E-1,3.3792484E-1,4.09153E-1,-7.046098E-2],"categories":[],"categories_nodes":[],"categories_segments":[],"categories_sizes":[],"default_left":[1,1,0,0,1,0,0],"id":112,"left_children":[1,3,-1,-1,5,-1,-1],"loss_changes":[1.1704819E0,1.739541E0,0E0,0E0,3.5680485E-1,0E0,0E0],"parents":[2147483647,0,0,1,1,4,4],"right_children":[2,4,-1,-1,6,-1,-1],"split_conditions":[1.75E0,2.35E0,-4.2280596E-2,-4.0765107E-2,5.05E0,4.0915303E-2,-7.0460984E-3],"split_indices":[3,2,0,0,2,0,0],"split_type":[0,0,0,0,0,0,0],"sum_hessian":[1.7663004E1,1.3667976E1,3.995027E0,3.3929079E0,1.0275068E1,8.747503E0,1.5275649E0],"tree_param":{"num_deleted":"0","num_feature":"4","num_nodes":"7","size_leaf_vector":"0"}},{"base_weights":[6.122366E-2,-3.804732E-1,3.8665646E-1,-4.5541474E-1,4.313716E-2,7.309931E-2,4.9415046E-1,2.561852E-1,-1.5396966E-1],"categories":[],"categories_nodes":[],"categories_segments":[],"categories_sizes":[],"default_left":[1,1,1,0,0,1,0,0,0],"id":113,"left_children":[1,3,5,-1,-1,7,-1,-1,-1],"loss_changes":[2.9246128E0,2.9587197E-1,3.555895E-1,0E0,0E0,2.1158214E-1,0E0,0E0,0E0],"parents":[2147483647,0,0,1,1,2,2,5,5],"right_children":[2,4,6,-1,-1,8,-1,-1,-1],"split_conditions":[4.75E0,1.55E0,1.75E0,-4.5541476E-2,4.313716E-3,1.55E0,4.941505E-2,2.5618521E-2,-1.5396967E-2],"split_indices":[2,3,3,0,0,3,0,0,0],"split_type":[0,0,0,0,0,0,0,0,0],"sum_hessian":[1.8322731E1,7.701145E0,1.0621585E1,6.4797277E0,1.2214174E0,3.1405926E0,7.4809923E0,1.667699E0,1.4728937E0],"tree_param":{"num_deleted":"0","num_feature":"4","num_nodes":"9","size_leaf_vector":"0"}},{"base_weights":[-5.6608614E-2,5.053051E-1,-4.873766E-1],"categories":[],"categories_nodes":[],"categories_segments":[],"categories_sizes":[],"default_left":[1,0,0],"id":114,"left_children":[1,-1,-1],"loss_changes":[4.7251515E0,0E0,0E0],"parents":[2147483647,0,0],"right_children":[2,-1,-1],"split_conditions":[2.35E0,5.0530512E-2,-4.873766E-2],"split_indices":[2,0,0],"split_type":[0,0,0],"sum_hessian":[1.7503597E1,7.520489E0,9.983108E0],"tree_param":{"num_deleted":"0","num_feature":"4","num_nodes":"3","size_leaf_vector":"0"}},{"base_weights":[8.382731E-3,-4.3225467E-1,1.5487269E-1,3.638226E-1,-4.1294727E-1,4.2793474E-1,-4.965485E-2],"categories":[],"categories_nodes":[],"categories_segments":[],"categories_sizes":[],"default_left":[1,0,1,1,0,0,0],"id":115,"left_children":[1,-1,3,5,-1,-1,-1],"loss_changes":[1.3421888E0,0E0,1.9967524E0,3.3692658E-1,0E0,0E0,0E0],"parents":[2147483647,0,0,2,2,3,3],"right_children":[2,-1,4,6,-1,-1,-1],"split_conditions":[2.35E0,-4.3225467E-2,1.75E0,5.05E0,-4.1294727E-2,4.2793475E-2,-4.965485E-3],"split_indices":[2,0,3,2,0,0,0],"split_type":[0,0,0,0,0,0,0],"sum_hessian":[1.8756237E1,4.193018E0,1.4563219E1,1.0908358E1,3.6548615E0,9.413737E0,1.4946208E0],"tree_param":{"num_deleted":"0","num_feature":"4","num_nodes":"7","size_leaf_vector":"0"}},{"base_weights":[4.466644E-2,-3.8962713E-1,3.8554817E-1,-4.6201462E-1,4.5892667E-2,7.67493E-2,4.92766E-1,2.628449E-1,-1.5742037E-1],"categories":[],"categories_nodes":[],"categories_segments":[],"categories_sizes":[],"default_left":[1,1,1,0,0,1,0,0,0],"id":116,"left_children":[1,3,5,-1,-1,7,-1,-1,-1],"loss_changes":[3.0730317E0,3.105923E-1,3.4504044E-1,0E0,0E0,2.2286789E-1,0E0,0E0,0E0],"parents":[2147483647,0,0,1,1,2,2,5,5],"right_children":[2,4,6,-1,-1,8,-1,-1,-1],"split_conditions":[4.75E0,1.55E0,1.75E0,-4.6201464E-2,4.5892666E-3,1.55E0,4.92766E-2,2.628449E-2,-1.5742037E-2],"split_indices":[2,3,3,0,0,3,0,0,0],"split_type":[0,0,0,0,0,0,0,0,0],"sum_hessian":[1.8743027E1,8.179324E0,1.0563703E1,6.9614334E0,1.2178906E0,3.1647391E0,7.3989635E0,1.6951454E0,1.4695938E0],"tree_param":{"num_deleted":"0","num_feature":"4","num_nodes":"9","size_leaf_vector":"0"}},{"base_weights":[-6.7056194E-2,4.5361617E-1,-4.5787805E-1],"categories":[],"categories_nodes":[],"categories_segments":[],"categories_sizes":[],"default_left":[1,0,0],"id":117,"left_children":[1,-1,-1],"loss_changes":[2.8320658E0,0E0,0E0],"parents":[2147483647,0,0],"right_children":[2,-1,-1],"split_conditions":[2.35E0,4.536162E-2,-4.5787808E-2],"split_indices":[2,0,0],"split_type":[0,0,0],"sum_hessian":[1.1896768E1,5.0320916E0,6.864676E0],"tree_param":{"num_deleted":"0","num_feature":"4","num_nodes":"3","size_leaf_vector":"0"}},{"base_weights":[7.462174E-3,1.3078848E-1,-4.275579E-1,-3.826067E-1,3.0067956E-1,4.4467425E-1,-1.9463362E-1,4.9232873E-1,7.3279254E-2],"categories":[],"categories_nodes":[],"categories_segments":[],"categories_sizes":[],"default_left":[1,1,0,0,1,1,0,0,0],"id":118,"left_children":[1,3,-1,-1,5,7,-1,-1,-1],"loss_changes":[9.184332E-1,1.2743509E0,0E0,0E0,8.3876795E-1,1.139307E-1,0E0,0E0,0E0],"parents":[2147483647,0,0,1,1,4,4,5,5],"right_children":[2,4,-1,-1,6,8,-1,-1,-1],"split_conditions":[5.1499996E0,2.35E0,-4.275579E-2,-3.826067E-2,1.6500001E0,4.95E0,-1.9463362E-2,4.9232874E-2,7.3279254E-3],"split_indices":[2,2,0,0,3,2,0,0,0],"split_type":[0,0,0,0,0,0,0,0,0],"sum_hessian":[1.5076847E1,1.2291586E1,2.7852607E0,2.7448459E0,9.546741E0,7.4756866E0,2.0710535E0,6.336958E0,1.1387285E0],"tree_param":{"num_deleted":"0","num_feature":"4","num_nodes":"9","size_leaf_vector":"0"}},{"base_weights":[4.6308983E-2,-2.7234843E-1,4.3115133E-1,-4.6427193E-1,2.509628E-1],"categories":[],"categories_nodes":[],"categories_segments":[],"categories_sizes":[],"default_left":[1,1,0,0,0],"id":119,"left_children":[1,3,-1,-1,-1],"loss_changes":[2.0898545E0,1.061763E0,0E0,0E0,0E0],"parents":[2147483647,0,0,1,1],"right_children":[2,4,-1,-1,-1],"split_conditions":[1.6500001E0,4.95E0,4.3115135E-2,-4.6427194E-2,2.509628E-2],"split_indices":[3,2,0,0,0],"split_type":[0,0,0,0,0],"sum_hessian":[1.5084031E1,8.411471E0,6.67256E0,6.2369127E0,2.1745584E0],"tree_param":{"num_deleted":"0","num_feature":"4","num_nodes":"5","size_leaf_vector":"0"}},{"base_weights":[-6.668791E-2,4.448949E-1,-4.5183372E-1],"categories":[],"categories_nodes":[],"categories_segments":[],"categories_sizes":[],"default_left":[1,0,0],"id":120,"left_children":[1,-1,-1],"loss_changes":[2.572497E0,0E0,0E0],"parents":[2147483647,0,0],"right_children":[2,-1,-1],"split_conditions":[2.35E0,4.448949E-2,-4.518337E-2],"split_indices":[2,0,0],"split_type":[0,0,0],"sum_hessian":[1.1035884E1,4.6732926E0,6.3625913E0],"tree_param":{"num_deleted":"0","num_feature":"4","num_nodes":"3","size_leaf_vector":"0"}},{"base_weights":[6.4658383E-3,1.2820034E-1,-4.1870055E-1,-3.7374222E-1,2.930383E-1,4.3443555E-1,-1.8005645E-1,4.8254108E-1,7.584551E-2],"categories":[],"categories_nodes":[],"categories_segments":[],"categories_sizes":[],"default_left":[1,1,0,0,1,1,0,0,0],"id":121,"left_children":[1,3,-1,-1,5,7,-1,-1,-1],"loss_changes":[8.404087E-1,1.1505868E0,0E0,0E0,7.493358E-1,1.0169506E-1,0E0,0E0,0E0],"parents":[2147483647,0,0,1,1,4,4,5,5],"right_children":[2,4,-1,-1,6,8,-1,-1,-1],"split_conditions":[5.1499996E0,2.35E0,-4.1870054E-2,-3.7374225E-2,1.6500001E0,4.95E0,-1.8005645E-2,4.825411E-2,7.584551E-3],"split_indices":[2,2,0,0,3,2,0,0,0],"split_type":[0,0,0,0,0,0,0,0,0],"sum_hessian":[1.4200356E1,1.1582501E1,2.6178548E0,2.5500622E0,9.032439E0,7.0169487E0,2.01549E0,5.8821807E0,1.134768E0],"tree_param":{"num_deleted":"0","num_feature":"4","num_nodes":"9","size_leaf_vector":"0"}},{"base_weights":[4.6309974E-2,-2.628118E-1,4.176044E-1,-4.5672306E-1,2.3751321E-1],"categories":[],"categories_nodes":[],"categories_segments":[],"categories_sizes":[],"default_left":[1,1,0,0,0],"id":122,"left_children":[1,3,-1,-1,-1],"loss_changes":[1.8554555E0,9.732561E-1,0E0,0E0,0E0],"parents":[2147483647,0,0,1,1],"right_children":[2,4,-1,-1,-1],"split_conditions":[1.6500001E0,4.95E0,4.176044E-2,-4.567231E-2,2.3751322E-2],"split_indices":[3,2,0,0,0],"split_type":[0,0,0,0,0],"sum_hessian":[1.420977E1,7.9135256E0,6.2962446E0,5.765957E0,2.1475682E0],"tree_param":{"num_deleted":"0","num_feature":"4","num_nodes":"5","size_leaf_vector":"0"}},{"base_weights":[-6.1891694E-2,4.7147417E-1,-4.679493E-1],"categories":[],"categories_nodes":[],"categories_segments":[],"categories_sizes":[],"default_left":[1,0,0],"id":123,"left_children":[1,-1,-1],"loss_changes":[3.3940344E0,0E0,0E0],"parents":[2147483647,0,0],"right_children":[2,-1,-1],"split_conditions":[2.35E0,4.714742E-2,-4.6794932E-2],"split_indices":[2,0,0],"split_type":[0,0,0],"sum_hessian":[1.3652546E1,5.831559E0,7.8209867E0],"tree_param":{"num_deleted":"0","num_feature":"4","num_nodes":"3","size_leaf_vector":"0"}},{"base_weights":[-1.4698102E-2,1.2818567E-1,-4.1644388E-1,-3.951218E-1,3.183975E-1,3.8954118E-1,-6.317061E-2],"categories":[],"categories_nodes":[],"categories_segments":[],"categories_sizes":[],"default_left":[1,1,0,0,1,0,0],"id":124,